{
  "schema_version": "1.2.0",
  "mode": "easy",
  "feature_columns": [
    "dist_to_nearest_active_item",
    "dist_to_dropoff",
    "inventory_util",
    "local_congestion",
    "teammate_proximity",
    "order_urgency",
    "blocked_ticks",
    "queue_distance",
    "queue_slot_index",
    "is_queue_violation",
    "near_dropoff_blocking",
    "repeated_failed_move_count",
    "conflict_degree",
    "yield_applied",
    "queue_role_lead",
    "queue_role_courier",
    "queue_role_collector",
    "queue_role_yield",
    "queue_advance",
    "move_target_blocked",
    "noop_move",
    "intent_move_but_wait",
    "queue_relaxation_active",
    "in_corner",
    "dead_end_depth",
    "escape_macro_active",
    "escape_macro_ticks_remaining",
    "queue_eta_rank",
    "local_conflict_count",
    "cbs_timeout",
    "cbs_expanded_nodes",
    "dropoff_attempt_same_order_streak",
    "dropoff_watchdog_triggered",
    "loop_two_cycle_count",
    "coverage_gain",
    "serviceable_dropoff",
    "ordering_rank",
    "ordering_score",
    "dropoff_target_pending",
    "dropoff_target_in_progress",
    "wait_reason_blocked_by_vertex_reservation",
    "wait_reason_blocked_by_edge_reservation",
    "wait_reason_forbidden_queue_zone",
    "wait_reason_prohibited_repeat_move",
    "wait_reason_no_path_with_constraints",
    "wait_reason_timeout_fallback",
    "stand_failure_count_recent",
    "stand_success_count_recent",
    "stand_cooldown_ticks_remaining",
    "kind_failure_count_recent",
    "repeated_same_stand_no_delta_streak",
    "contention_at_stand_proxy",
    "time_since_last_conversion_tick",
    "last_conversion_was_pickup",
    "last_conversion_was_dropoff"
  ],
  "normalization": {
    "mean": [
      2.488888888888889,
      5.575925925925926,
      0.4341975308641976,
      0.0,
      0.0,
      1.548148148148148,
      20.215555555555557,
      35.59111111111111,
      -1.0,
      0.042222222222222223,
      0.0,
      0.1559259259259259,
      0.0,
      0.0,
      0.5040740740740741,
      0.0,
      0.1625925925925926,
      0.0,
      0.2237037037037037,
      0.17444444444444446,
      0.36074074074074075,
      0.00962962962962963,
      0.007407407407407408,
      0.0,
      0.003703703703703704,
      0.0011111111111111111,
      0.0033333333333333335,
      1580.8833333333334,
      0.0,
      0.0,
      0.0,
      1.4277777777777778,
      0.0,
      10.781481481481482,
      0.08962962962962963,
      0.40185185185185185,
      -0.4444444444444444,
      47.327222222222225,
      0.0,
      0.045925925925925926,
      0.0,
      0.0,
      0.0,
      0.00962962962962963,
      0.0,
      0.0,
      0.39925925925925926,
      0.1411111111111111,
      0.502962962962963,
      0.37592592592592594,
      1.701851851851852,
      0.0,
      77.93962962962964,
      0.6177777777777778,
      0.37222222222222223
    ],
    "std": [
      1.799039524267475,
      4.140023044540676,
      0.34852905788676247,
      1.0,
      1.0,
      0.5526839364480225,
      51.664389005949005,
      44.935544730724175,
      1.0,
      0.20109576368695464,
      1.0,
      0.3627851038150114,
      1.0,
      1.0,
      0.4999834016449336,
      1.0,
      0.3689935520122429,
      1.0,
      0.4167257571268534,
      0.3794912123447836,
      0.4802154294798975,
      0.09765705229437242,
      0.08574694002066834,
      1.0,
      0.0859865686388437,
      0.033314809667922114,
      0.10358392553687867,
      3587.8211126516453,
      1.0,
      1.0,
      1.0,
      5.4207733720030475,
      1.0,
      19.409133723051287,
      0.28565041418153947,
      0.49027231312311437,
      0.4969039949999533,
      78.0087077265919,
      1.0,
      0.20932447361398596,
      1.0,
      1.0,
      1.0,
      0.09765705229437242,
      1.0,
      1.0,
      1.8331917640813649,
      0.4765760079546858,
      2.027494010247927,
      2.05240917019985,
      5.316953692730896,
      1.0,
      74.66395123938754,
      0.4859304426167684,
      0.4833971860759771
    ]
  },
  "heads": {
    "pickup": {
      "type": "ridge_logit",
      "bias": 0.8563306123039134,
      "weights": [
        -1.5322805324083147e-13,
        -0.33615397557032517,
        -0.1416788125106678,
        0.0,
        0.0,
        -0.07739122146578134,
        0.0032998546381233142,
        0.008040434875652556,
        0.0,
        4.6984068802605795e-14,
        0.0,
        4.1896911329369625e-15,
        0.0,
        0.0,
        -6.094519099701042e-14,
        0.0,
        -0.009890439204480015,
        0.0,
        -1.612444354783873e-14,
        -5.5621032237655175e-14,
        -1.800433502333735e-13,
        -1.0771434389607955e-14,
        -1.9342269292152724e-15,
        0.0,
        -0.014164477582104802,
        -4.909269268183117e-15,
        3.3339973174679547e-15,
        0.02994943859757873,
        0.0,
        0.0,
        0.0,
        1.102188858008205e-14,
        0.0,
        -0.11383615303339636,
        -0.0035585525371854814,
        -2.440201521343224e-13,
        0.021842974769297606,
        -0.013426820031622266,
        0.0,
        9.894062221608799e-14,
        0.0,
        0.0,
        0.0,
        -1.1630191149871627e-14,
        0.0,
        0.0,
        0.03510253578523237,
        0.05017300543894215,
        0.06525949205249228,
        -0.05549045790953091,
        -0.014597098774938583,
        0.0,
        -0.03065152894140976,
        -2.754843192104732e-13,
        -0.3617244905705215
      ],
      "clip": 8.0,
      "temperature": 0.5
    },
    "dropoff": {
      "type": "ridge_logit",
      "bias": 0.48112703890226943,
      "weights": [
        -0.02498288640574212,
        1.4580476477800188e-14,
        -0.6270252655947561,
        0.0,
        0.0,
        0.043865652834028275,
        0.09062676696457683,
        -0.01455098748706848,
        0.0,
        5.601559829228547e-15,
        0.0,
        6.710025743896273e-15,
        0.0,
        0.0,
        0.013209661731475805,
        0.0,
        -1.7274751135952146e-15,
        0.0,
        4.497507553371055e-14,
        1.0125222729689811e-14,
        1.824433387410453e-14,
        4.411513894604205e-15,
        2.4345731431026655e-15,
        0.0,
        6.460660828763324e-16,
        -1.1911338469643179e-15,
        9.95662420976112e-16,
        8.627641075441308e-05,
        0.0,
        0.0,
        0.0,
        -0.023296974504164233,
        0.0,
        0.2856871162110822,
        -0.06718956059173345,
        -0.006377497364678991,
        -0.006292383269859183,
        0.09873863273838096,
        0.0,
        -0.014937146770097708,
        0.0,
        0.0,
        0.0,
        4.273653600044309e-15,
        0.0,
        0.0,
        7.6963682521615755e-16,
        1.6756506269432663e-14,
        1.5033030398613568e-14,
        1.6246910071091477e-14,
        -0.003125960400520425,
        0.0,
        -0.49642296593945207,
        0.017101816677138115,
        -0.017191439228117965
      ],
      "clip": 8.0,
      "temperature": 0.5
    },
    "ordering": {
      "type": "ridge",
      "bias": -2.670518518518521,
      "weights": [
        0.000311852027818842,
        0.0002888943040866693,
        -0.00567906433783943,
        0.0,
        0.0,
        -0.0008458133126819643,
        0.003684405815806131,
        0.004677857749249033,
        0.0,
        0.0002413140912122863,
        0.0,
        0.0002570637731753167,
        0.0,
        0.0,
        0.009259163733539636,
        0.0,
        0.003667233244702849,
        0.0,
        -0.0004308198982755461,
        0.0007664701876031337,
        -0.7200040882157045,
        0.0003511053770610374,
        -0.00043174616084279,
        0.0,
        -0.00032586575096937804,
        0.0006730461860853441,
        -0.0005933387016076881,
        0.000988641464179946,
        0.0,
        0.0,
        0.0,
        0.002053208315216736,
        0.0,
        -3.873981504934963,
        0.0856829614335385,
        -0.0024622787880266366,
        -0.0017326671269615344,
        -0.0014642591957756703,
        0.0,
        -1.1803756217608231e-05,
        0.0,
        0.0,
        0.0,
        0.000351105377007835,
        0.0,
        0.0,
        -0.000510338000307294,
        6.359530613986029e-05,
        -0.0004462751256483266,
        0.000334724450860939,
        0.002909945323937927,
        0.0,
        -0.005691754795472251,
        -0.0037300885157439396,
        -0.00792590451083551
      ],
      "clip": 12.0
    }
  },
  "calibration": {
    "pickup_temp": 0.5,
    "dropoff_temp": 0.5
  },
  "weights": {
    "bias": 0.5634544627462134,
    "dist_to_nearest_active_item": 0.014346926583037444,
    "dist_to_dropoff": 0.016045086975084024,
    "inventory_util": -3.8251900561220444,
    "local_congestion": 0.0,
    "teammate_proximity": 0.0,
    "order_urgency": -0.5149234582380793,
    "blocked_ticks": 0.010783584440469134,
    "queue_distance": 0.027953804180770328,
    "queue_slot_index": 8.118537841931113e-12,
    "is_queue_violation": 0.38495573654747434,
    "near_dropoff_blocking": 0.0,
    "repeated_failed_move_count": -1.0090409503447428,
    "conflict_degree": 0.0,
    "yield_applied": 0.0,
    "queue_role_lead": 2.9125022173810966,
    "queue_role_courier": 0.0,
    "queue_role_collector": 2.5217098237130537,
    "queue_role_yield": 0.0,
    "queue_advance": 0.8755933804632076,
    "move_target_blocked": -2.638507915933241,
    "noop_move": -0.8758410662719424,
    "intent_move_but_wait": -0.2779407800564569,
    "queue_relaxation_active": -0.980524637659488,
    "in_corner": 0.0,
    "dead_end_depth": -1.3425283126295602,
    "escape_macro_active": 1.3433735659902521,
    "escape_macro_ticks_remaining": 0.24045278870859735,
    "queue_eta_rank": 0.00013723382984706114,
    "local_conflict_count": 0.0,
    "cbs_timeout": 0.0,
    "cbs_expanded_nodes": 0.0,
    "dropoff_attempt_same_order_streak": -2.201099359893531,
    "dropoff_watchdog_triggered": 0.0,
    "loop_two_cycle_count": -0.9483462050032087,
    "coverage_gain": 0.3876919251284069,
    "serviceable_dropoff": -0.13822514032621339,
    "ordering_rank": -0.13960737782514007,
    "ordering_score": 0.00799626410444045,
    "dropoff_target_pending": 0.0,
    "dropoff_target_in_progress": 1.4083709115156344,
    "wait_reason_blocked_by_vertex_reservation": 0.0,
    "wait_reason_blocked_by_edge_reservation": 0.0,
    "wait_reason_forbidden_queue_zone": 0.0,
    "wait_reason_prohibited_repeat_move": -0.2779407800554201,
    "wait_reason_no_path_with_constraints": 0.0,
    "wait_reason_timeout_fallback": 0.0,
    "stand_failure_count_recent": -0.007166427969781987,
    "stand_success_count_recent": 0.1657690119187518,
    "stand_cooldown_ticks_remaining": -0.08338676834466335,
    "kind_failure_count_recent": 0.09441679057447577,
    "repeated_same_stand_no_delta_streak": 0.023221181596013496,
    "contention_at_stand_proxy": 0.0,
    "time_since_last_conversion_tick": -0.01106091650995689,
    "last_conversion_was_pickup": -0.5649202723372203,
    "last_conversion_was_dropoff": -2.7829651937259583
  },
  "ordering_weights": {
    "bias": -2.567088659465104,
    "carrying_active": -4.342285852773735,
    "queue_role_lead": 1.8413446634831732,
    "queue_role_courier": 0.0,
    "blocked_ticks": -0.00473128219000092,
    "local_conflict_count": 0.0,
    "dist_to_goal_proxy": 0.018164122609440683,
    "dropoff_watchdog_pressure": -0.078062011042599,
    "choke_occupancy_proxy": 2.9948251603308442
  },
  "metrics": {
    "rows_train": 2700,
    "rows_validation": 1500,
    "mae": 1.6626547419176616,
    "rmse": 3.328488698892003,
    "r2": 0.9680370777214065
  },
  "dedup": {
    "strategy": "downweight",
    "signature_kind": "action",
    "runs_total": 14,
    "runs_kept": 14,
    "signature_clusters": 12,
    "duplicated_clusters": 1,
    "duplicate_runs": 2,
    "max_cluster_size": 3,
    "top_cluster_sizes": [
      3,
      1,
      1,
      1,
      1
    ],
    "effective_run_weight_sum": 12.0,
    "signature_columns": [
      "tick",
      "bot_id",
      "action_kind",
      "action_dx",
      "action_dy",
      "action_item_kind",
      "action_order_id",
      "goal_cell_x",
      "goal_cell_y"
    ]
  },
  "metrics_v2": {
    "pickup": {
      "rows_train": 189,
      "rows_validation": 100,
      "logloss": 0.3304344752260883,
      "auc": 0.8579545454545454
    },
    "dropoff": {
      "rows_train": 141,
      "rows_validation": 91,
      "logloss": 0.30246689522302106,
      "auc": 0.19727891156462585
    },
    "ordering": {
      "mae": 0.003432535165590527,
      "rmse": 0.004735704186852098,
      "r2": 0.999998413494726
    }
  }
}