{
  "schema_version": "1.2.0",
  "mode": "easy",
  "feature_columns": [
    "dist_to_nearest_active_item",
    "dist_to_dropoff",
    "inventory_util",
    "local_congestion",
    "teammate_proximity",
    "order_urgency",
    "blocked_ticks",
    "queue_distance",
    "queue_slot_index",
    "is_queue_violation",
    "near_dropoff_blocking",
    "repeated_failed_move_count",
    "conflict_degree",
    "yield_applied",
    "queue_role_lead",
    "queue_role_courier",
    "queue_role_collector",
    "queue_role_yield",
    "queue_advance",
    "move_target_blocked",
    "noop_move",
    "intent_move_but_wait",
    "queue_relaxation_active",
    "in_corner",
    "dead_end_depth",
    "escape_macro_active",
    "escape_macro_ticks_remaining",
    "queue_eta_rank",
    "local_conflict_count",
    "cbs_timeout",
    "cbs_expanded_nodes",
    "dropoff_attempt_same_order_streak",
    "dropoff_watchdog_triggered",
    "loop_two_cycle_count",
    "coverage_gain",
    "serviceable_dropoff",
    "ordering_rank",
    "ordering_score",
    "dropoff_target_pending",
    "dropoff_target_in_progress",
    "wait_reason_blocked_by_vertex_reservation",
    "wait_reason_blocked_by_edge_reservation",
    "wait_reason_forbidden_queue_zone",
    "wait_reason_prohibited_repeat_move",
    "wait_reason_no_path_with_constraints",
    "wait_reason_timeout_fallback",
    "stand_failure_count_recent",
    "stand_success_count_recent",
    "stand_cooldown_ticks_remaining",
    "kind_failure_count_recent",
    "repeated_same_stand_no_delta_streak",
    "contention_at_stand_proxy",
    "time_since_last_conversion_tick",
    "last_conversion_was_pickup",
    "last_conversion_was_dropoff"
  ],
  "normalization": {
    "mean": [
      2.1904166666666667,
      6.013333333333334,
      0.4427777777777777,
      0.0,
      0.0,
      1.5679166666666666,
      22.711666666666666,
      39.88916666666667,
      -1.0,
      0.035,
      0.0,
      0.15916666666666668,
      0.0,
      0.0,
      0.48,
      0.0,
      0.145,
      0.0,
      0.20291666666666666,
      0.19625,
      0.38958333333333334,
      0.010833333333333334,
      0.008333333333333333,
      0.0,
      0.004166666666666667,
      0.00125,
      0.00375,
      1399.365,
      0.0,
      0.0,
      0.0,
      0.7366666666666667,
      0.0,
      12.03125,
      0.07708333333333334,
      0.365,
      -0.5,
      37.266041666666666,
      0.0,
      0.03,
      0.0,
      0.0,
      0.0,
      0.010833333333333334,
      0.0,
      0.0,
      0.44875,
      0.12458333333333334,
      0.56125,
      0.4225,
      1.9141666666666666,
      0.0,
      84.08333333333333,
      0.6079166666666667,
      0.38208333333333333
    ],
    "std": [
      1.4453920436069316,
      4.123488275181046,
      0.35546483217553354,
      1.0,
      1.0,
      0.5511085734428582,
      54.284054109430286,
      45.879600215915374,
      1.0,
      0.18377975949489106,
      1.0,
      0.36583143507480176,
      1.0,
      1.0,
      0.49959983987187184,
      1.0,
      0.352100837829165,
      1.0,
      0.4021709749044,
      0.3971598387299501,
      0.48765577995366993,
      0.10351798018809207,
      0.09090593428863096,
      1.0,
      0.09119195261766369,
      0.03533323506275643,
      0.10986023317530931,
      3397.6430406643667,
      1.0,
      1.0,
      1.0,
      3.6611458437064326,
      1.0,
      20.239263164391634,
      0.26672362672915867,
      0.48143016108258113,
      0.5,
      61.131517656592365,
      1.0,
      0.1705872210923198,
      1.0,
      1.0,
      1.0,
      0.10351798018809207,
      1.0,
      1.0,
      1.9386094941564,
      0.43577019141081946,
      2.131607008221731,
      2.172324503843751,
      5.603359049613802,
      1.0,
      75.72963239196544,
      0.4882151094093213,
      0.48589675829565093
    ]
  },
  "heads": {
    "pickup": {
      "type": "ridge_logit",
      "bias": 0.8193579062966136,
      "weights": [
        2.238071403254533e-13,
        -0.3376838563725917,
        -0.12835027601445173,
        0.0,
        0.0,
        -0.080183560223287,
        0.0034849912445356064,
        0.007765429034588909,
        0.0,
        4.613539683517481e-14,
        0.0,
        6.3067048263316e-14,
        0.0,
        0.0,
        -5.699746194075203e-14,
        0.0,
        -0.010220751446669367,
        0.0,
        -3.255162873436707e-14,
        -8.242017574712788e-14,
        5.5029563612068003e-14,
        1.1958133806334616e-14,
        5.02209751374712e-16,
        0.0,
        -0.01363301751275448,
        1.1566935085670876e-14,
        7.936948212022923e-15,
        0.02037968482858091,
        0.0,
        0.0,
        0.0,
        1.0864460538594e-14,
        0.0,
        -0.11204692404930659,
        -0.0013074856203266873,
        1.0150627955916562e-13,
        0.013988463500859069,
        -0.015531378205213973,
        0.0,
        -3.070175741705526e-14,
        0.0,
        0.0,
        0.0,
        1.2605299800377647e-14,
        0.0,
        0.0,
        0.03446119336170832,
        0.056960258805055515,
        0.07336785899615096,
        -0.05857764792457161,
        -0.012295273877723374,
        0.0,
        -0.02999251059535818,
        -3.2665488052190816e-13,
        -0.3794855849882357
      ],
      "clip": 8.0,
      "temperature": 0.5
    },
    "dropoff": {
      "type": "ridge_logit",
      "bias": 0.47265081447616186,
      "weights": [
        0.039290855474553965,
        -3.291748615258282e-14,
        -0.2591893631651878,
        0.0,
        0.0,
        0.02667443150020757,
        0.06269603359076513,
        -0.020263529258677346,
        0.0,
        8.381247021788707e-15,
        0.0,
        7.694283893265216e-16,
        0.0,
        0.0,
        0.018796510325883583,
        0.0,
        1.4461623305688277e-14,
        0.0,
        -1.8740447170724084e-14,
        -1.7756871451061654e-14,
        -6.745993191262794e-15,
        -2.6688683782555728e-15,
        5.416138235083997e-15,
        0.0,
        2.460832254497666e-15,
        2.494662343644343e-15,
        6.953986257029345e-16,
        0.00010093878904716193,
        0.0,
        0.0,
        0.0,
        -0.03845259353728875,
        0.0,
        -0.03907178556998812,
        -0.07426407049542755,
        -0.007195605584564576,
        -0.006928363111341771,
        0.08062388516951408,
        0.0,
        -0.02030739192216086,
        0.0,
        0.0,
        0.0,
        -2.259787875896684e-15,
        0.0,
        0.0,
        5.486918422109296e-15,
        1.462139522575481e-14,
        6.276852109245381e-15,
        4.340273721486006e-15,
        -0.007713980145266827,
        0.0,
        -0.2617173443894221,
        0.04426757757227787,
        -0.04447879072819501
      ],
      "clip": 8.0,
      "temperature": 0.6
    },
    "ordering": {
      "type": "ridge",
      "bias": -2.9675000000000002,
      "weights": [
        -0.0009111536218622689,
        -0.0004660565525844072,
        -0.00775380690560558,
        0.0,
        0.0,
        -0.0009796768216146967,
        0.004291169124222912,
        0.004096124546887023,
        0.0,
        0.0006502137318276947,
        0.0,
        0.00029654348412221283,
        0.0,
        0.0,
        0.009679338515598532,
        0.0,
        0.0027182826076494818,
        0.0,
        -0.0006192193898918896,
        0.00101111517489111,
        -0.7312222522278927,
        0.0004183238009111793,
        -0.0005383395459087318,
        0.0,
        -0.0004409748126039485,
        0.0009494477798408588,
        -0.0008221234614570855,
        0.0010243663988660336,
        0.0,
        0.0,
        0.0,
        0.000792092779736961,
        0.0,
        -4.037322865158126,
        0.08001609396738649,
        -0.0028296036065725235,
        -0.002048640732154666,
        -0.0021152912716514687,
        0.0,
        0.00015679945508757974,
        0.0,
        0.0,
        0.0,
        0.00041832380087787987,
        0.0,
        0.0,
        -0.000619407225336456,
        -0.0001310349051609058,
        -0.0005349822322174914,
        0.00024025703913491204,
        0.003819144061095974,
        0.0,
        -0.006545503137218553,
        -0.004077109806960983,
        -0.009158228367952524
      ],
      "clip": 12.0
    }
  },
  "calibration": {
    "pickup_temp": 0.5,
    "dropoff_temp": 0.6
  },
  "weights": {
    "bias": -0.008719519146545845,
    "dist_to_nearest_active_item": 0.26682551739000976,
    "dist_to_dropoff": 0.04279789669528862,
    "inventory_util": -2.534157811702878,
    "local_congestion": 0.0,
    "teammate_proximity": 0.0,
    "order_urgency": -0.5226137871637365,
    "blocked_ticks": 0.009983975874049233,
    "queue_distance": 0.025786055824988222,
    "queue_slot_index": 2.2272044253076257e-12,
    "is_queue_violation": -0.14616908312872398,
    "near_dropoff_blocking": 0.0,
    "repeated_failed_move_count": -0.6727743724447968,
    "conflict_degree": 0.0,
    "yield_applied": 0.0,
    "queue_role_lead": 2.173126089988553,
    "queue_role_courier": 0.0,
    "queue_role_collector": 2.4395449854934976,
    "queue_role_yield": 0.0,
    "queue_advance": 0.9770459330995597,
    "move_target_blocked": -2.946193563206851,
    "noop_move": -0.5451294070339516,
    "intent_move_but_wait": -0.37029787026923433,
    "queue_relaxation_active": -1.2298749070896198,
    "in_corner": 0.0,
    "dead_end_depth": -1.0927536657730705,
    "escape_macro_active": 1.0850893796446586,
    "escape_macro_ticks_remaining": 0.22408693310952957,
    "queue_eta_rank": 9.866873484308399e-05,
    "local_conflict_count": 0.0,
    "cbs_timeout": 0.0,
    "cbs_expanded_nodes": 0.0,
    "dropoff_attempt_same_order_streak": -2.153443915752604,
    "dropoff_watchdog_triggered": 0.0,
    "loop_two_cycle_count": -0.9659621845274207,
    "coverage_gain": 0.45851515469966275,
    "serviceable_dropoff": 0.11203449770014756,
    "ordering_rank": 0.11315485265941883,
    "ordering_score": 0.0057800096935285705,
    "dropoff_target_pending": 0.0,
    "dropoff_target_in_progress": 1.7887238622959967,
    "wait_reason_blocked_by_vertex_reservation": 0.0,
    "wait_reason_blocked_by_edge_reservation": 0.0,
    "wait_reason_forbidden_queue_zone": 0.0,
    "wait_reason_prohibited_repeat_move": -0.37029787026901223,
    "wait_reason_no_path_with_constraints": 0.0,
    "wait_reason_timeout_fallback": 0.0,
    "stand_failure_count_recent": -0.02695618263786108,
    "stand_success_count_recent": 0.24038328693566888,
    "stand_cooldown_ticks_remaining": -0.07457872461556299,
    "kind_failure_count_recent": 0.14163295607359408,
    "repeated_same_stand_no_delta_streak": 0.008771594096592396,
    "contention_at_stand_proxy": 0.0,
    "time_since_last_conversion_tick": -0.010016058602533342,
    "last_conversion_was_pickup": -0.7496930822208419,
    "last_conversion_was_dropoff": -2.6953944329863493
  },
  "ordering_weights": {
    "bias": -3.1680640609552877,
    "carrying_active": -4.834122664321901,
    "queue_role_lead": 2.386225516459668,
    "queue_role_courier": 0.0,
    "blocked_ticks": -0.00474832984387659,
    "local_conflict_count": 0.0,
    "dist_to_goal_proxy": 0.024318720630327206,
    "dropoff_watchdog_pressure": -0.33901744417304625,
    "choke_occupancy_proxy": 3.0881354588904424
  },
  "metrics": {
    "rows_train": 2400,
    "rows_validation": 1500,
    "mae": 1.7548129324621362,
    "rmse": 3.894979598656586,
    "r2": 0.9634373677848541
  },
  "dedup": {
    "strategy": "downweight",
    "signature_kind": "action",
    "runs_total": 13,
    "runs_kept": 13,
    "signature_clusters": 11,
    "duplicated_clusters": 1,
    "duplicate_runs": 2,
    "max_cluster_size": 3,
    "top_cluster_sizes": [
      3,
      1,
      1,
      1,
      1
    ],
    "effective_run_weight_sum": 11.0,
    "signature_columns": [
      "tick",
      "bot_id",
      "action_kind",
      "action_dx",
      "action_dy",
      "action_item_kind",
      "action_order_id",
      "goal_cell_x",
      "goal_cell_y"
    ]
  },
  "metrics_v2": {
    "pickup": {
      "rows_train": 172,
      "rows_validation": 103,
      "logloss": 0.22302409924015368,
      "auc": 0.698019801980198
    },
    "dropoff": {
      "rows_train": 89,
      "rows_validation": 133,
      "logloss": 0.4952955258258231,
      "auc": 0.9876126126126126
    },
    "ordering": {
      "mae": 0.004499708099799149,
      "rmse": 0.006754448878753005,
      "r2": 0.99999597160195
    }
  }
}