{
  "schema_version": "1.2.0",
  "mode": "expert",
  "feature_columns": [
    "dist_to_nearest_active_item",
    "dist_to_dropoff",
    "inventory_util",
    "local_congestion",
    "teammate_proximity",
    "order_urgency",
    "blocked_ticks",
    "queue_distance",
    "queue_slot_index",
    "is_queue_violation",
    "near_dropoff_blocking",
    "repeated_failed_move_count",
    "conflict_degree",
    "yield_applied",
    "queue_role_lead",
    "queue_role_courier",
    "queue_role_collector",
    "queue_role_yield",
    "queue_advance",
    "move_target_blocked",
    "noop_move",
    "intent_move_but_wait",
    "queue_relaxation_active",
    "in_corner",
    "dead_end_depth",
    "escape_macro_active",
    "escape_macro_ticks_remaining",
    "queue_eta_rank",
    "local_conflict_count",
    "cbs_timeout",
    "cbs_expanded_nodes",
    "dropoff_attempt_same_order_streak",
    "dropoff_watchdog_triggered",
    "loop_two_cycle_count",
    "coverage_gain",
    "serviceable_dropoff",
    "ordering_rank",
    "ordering_score",
    "dropoff_target_pending",
    "dropoff_target_in_progress",
    "wait_reason_blocked_by_vertex_reservation",
    "wait_reason_blocked_by_edge_reservation",
    "wait_reason_forbidden_queue_zone",
    "wait_reason_prohibited_repeat_move",
    "wait_reason_no_path_with_constraints",
    "wait_reason_timeout_fallback",
    "stand_failure_count_recent",
    "stand_success_count_recent",
    "stand_cooldown_ticks_remaining",
    "kind_failure_count_recent",
    "repeated_same_stand_no_delta_streak",
    "contention_at_stand_proxy",
    "time_since_last_conversion_tick",
    "last_conversion_was_pickup",
    "last_conversion_was_dropoff"
  ],
  "normalization": {
    "mean": [
      5.147597222222222,
      16.03686111111111,
      0.39744212962962955,
      0.5602777777777778,
      10.901061728395062,
      2.7799305555555556,
      11.94988888888889,
      16.079694444444446,
      -0.8469236111111111,
      0.02711111111111111,
      0.05511111111111111,
      0.18207638888888888,
      0.44293055555555555,
      0.05511111111111111,
      0.06672222222222222,
      0.08595138888888888,
      0.6463819444444444,
      0.05511111111111111,
      0.10546527777777778,
      0.0078125,
      0.18252083333333333,
      0.01573611111111111,
      0.08286111111111111,
      0.0,
      0.0,
      0.0,
      0.0,
      5537.227416666667,
      0.010430555555555556,
      0.13770833333333332,
      0.03736111111111111,
      0.12890277777777778,
      0.0012777777777777779,
      10.904486111111112,
      0.1840625,
      0.07338888888888889,
      1.6354166666666667,
      7.819152777777778,
      0.0,
      0.004263888888888889,
      0.0,
      0.0030625,
      0.0013819444444444445,
      0.0120625,
      0.0,
      0.0,
      0.24072916666666666,
      0.043291666666666666,
      0.3213958333333333,
      0.15299305555555556,
      0.6827013888888889,
      0.17034722222222223,
      121.702125,
      0.560625,
      0.16900694444444445
    ],
    "std": [
      3.733217044914041,
      10.612005236870953,
      0.3902619813526445,
      1.0853020217409814,
      4.939874150530128,
      1.20760322570496,
      41.7816395746171,
      34.63805504252307,
      0.5808562714248909,
      0.1624072004728611,
      0.22819701256416544,
      0.3859074727160268,
      1.0058820179655057,
      0.22819701256416544,
      0.2495403119416793,
      0.28029225397245616,
      0.47809238264237547,
      0.22819701256416544,
      0.604837551803908,
      0.08804240366863003,
      0.3862731918378997,
      0.12445274572386854,
      0.2756721737436393,
      1.0,
      1.0,
      1.0,
      1.0,
      4937.397985680705,
      0.11372277774249595,
      0.34459359869836365,
      0.20067589302955618,
      2.088066800361057,
      0.03572317261566216,
      22.521516918699138,
      0.3875351546553551,
      0.2607737714505491,
      3.391532936552765,
      33.03835291040119,
      1.0,
      0.06515909867725381,
      1.0,
      0.055255054915817434,
      0.03714881793539215,
      0.10916499481862306,
      1.0,
      1.0,
      1.6118530645345146,
      0.32964753641410527,
      1.7864934606604745,
      1.541897302552424,
      3.1920401317179694,
      1.0400566979700114,
      75.62559388884117,
      0.496311000658861,
      0.37475805151323555
    ]
  },
  "heads": {
    "pickup": {
      "type": "ridge_logit",
      "bias": 0.8576177686379979,
      "weights": [
        -0.012909428913250708,
        0.020695125779286155,
        0.04543771755820522,
        0.1699323496337683,
        -0.06270225945489523,
        0.024996898737769793,
        0.44761130855629655,
        -0.046962909432262064,
        5.006142674568419e-12,
        4.2741163953980394e-13,
        5.215057749369559e-12,
        -0.07056254277299077,
        -0.0906498944846967,
        5.210015176770205e-12,
        4.2364353878456054e-12,
        6.292055322026414e-12,
        0.0343685708655638,
        5.20237437540405e-12,
        3.2542148731343766e-12,
        1.2277987306397178e-12,
        -5.29545870636434e-12,
        -2.674073729229791e-13,
        0.009347069724938078,
        0.0,
        0.0,
        0.0,
        0.0,
        -0.10954761779672549,
        0.022877880770439778,
        0.029810260565118315,
        -0.007367350708055493,
        1.1708096547846975e-12,
        -8.145329719456745e-14,
        -0.018434647255649726,
        0.039792466222291614,
        -0.33734077338923785,
        0.04987298829525772,
        0.8152139330490702,
        0.0,
        -8.67036550630749e-15,
        0.0,
        7.057043340326956e-13,
        6.894232496896014e-13,
        1.9799253626539313e-12,
        0.0,
        0.0,
        0.0033068116321293517,
        0.010608710761792522,
        -0.036775049384260156,
        -0.025620170983158674,
        -0.011903951565383158,
        -2.0950751445583043e-12,
        -0.0539472970095241,
        -0.02969717182676771,
        -0.04035903964867136
      ],
      "clip": 8.0,
      "temperature": 2.8000000000000003
    },
    "dropoff": {
      "type": "ridge_logit",
      "bias": 0.6419746888511877,
      "weights": [
        -0.009764799290707725,
        -1.2440328997361212e-11,
        -0.08166313694992255,
        -0.08474901788946974,
        -0.0531569387410195,
        0.07452469316161026,
        0.07408670142752727,
        -0.05444800251048044,
        -0.169053742183296,
        0.06698437327179574,
        -0.09719894233485366,
        8.328524865187725e-13,
        0.06872039617426139,
        -0.09719894233545534,
        0.03414788105564729,
        0.061772697142450594,
        0.03293263991442662,
        -0.09719894233575117,
        0.0572530870939716,
        8.829404486414023e-14,
        -2.541563794428825e-12,
        -1.0528391766947102e-12,
        0.012317375354968404,
        0.0,
        0.0,
        0.0,
        0.0,
        0.2870558175010272,
        0.001454767175679652,
        -0.0007387712634897746,
        -0.00429026215677443,
        -0.22355855683085787,
        -2.1262393561343802e-13,
        -0.05942514666535537,
        0.0707018532402415,
        -0.01261930187607881,
        0.12596805828971006,
        0.344089852820146,
        0.0,
        -0.050503813115795444,
        0.0,
        -2.48335566956167e-13,
        -1.1323758176142379e-13,
        -6.83640153693869e-13,
        0.0,
        0.0,
        -2.6035310515276943e-13,
        -1.591765012060939e-12,
        7.21889607925178e-13,
        -8.725451364608137e-13,
        -0.0022526212321785553,
        -1.48891448074753e-12,
        -0.17606464597157534,
        0.07486463273979518,
        -0.005221396982775583
      ],
      "clip": 8.0,
      "temperature": 0.5
    },
    "ordering": {
      "type": "ridge",
      "bias": -2.3739484368280914,
      "weights": [
        -0.0038979068186475287,
        -0.00042446907131143486,
        0.0014372118173624473,
        -0.0008023465833901257,
        -0.004819702044988432,
        -0.005955612847727125,
        0.0014924135780161874,
        -0.1965236450958341,
        0.09118397602114067,
        0.0019620012743341735,
        -0.042932761576678836,
        -0.0010466064956316976,
        0.001053534742563541,
        -0.042932761578001334,
        -0.12971528623058826,
        -0.17552165088723481,
        -0.26682003193349774,
        -0.042932761580515726,
        -0.01240508367620427,
        -0.0003844662392259073,
        -0.5791565808539921,
        0.00013056677327259508,
        -0.0017587214605995418,
        0.0,
        0.0,
        0.0,
        0.0,
        -0.0022881351896932483,
        0.12698041411009178,
        0.008460665168709837,
        -0.00030783346553240546,
        -0.0036260326344548376,
        0.0020700578810053517,
        -4.5045779900709455,
        0.11481178843935287,
        0.01527094257539751,
        0.0010793086236855658,
        -0.00023538540221744287,
        0.0,
        -0.0057394625171100265,
        0.0,
        0.00018927296887839002,
        -0.0003679469603741232,
        0.0026073514069830557,
        0.0,
        0.0,
        0.0005537201551900083,
        -0.0013485954096095947,
        -0.0007660487455397582,
        -0.00011940843579482412,
        -1.9367817121154027e-05,
        -0.002680922301698993,
        -0.002312356709588047,
        -0.003205891589032073,
        -0.0010435650196131139
      ],
      "clip": 12.0
    }
  },
  "calibration": {
    "pickup_temp": 2.8000000000000003,
    "dropoff_temp": 0.5
  },
  "weights": {
    "bias": 2.993654303591195,
    "dist_to_nearest_active_item": -0.004516457753734498,
    "dist_to_dropoff": -0.0022082758023449314,
    "inventory_util": -0.23442918510461577,
    "local_congestion": -0.0012260509207325677,
    "teammate_proximity": 0.03461955960178157,
    "order_urgency": -0.06720325140252051,
    "blocked_ticks": -0.000885647399496811,
    "queue_distance": -0.025242758773376114,
    "queue_slot_index": 0.30827033642120316,
    "is_queue_violation": -0.9247681239140818,
    "near_dropoff_blocking": -0.9138792357538259,
    "repeated_failed_move_count": -0.36263411106084104,
    "conflict_degree": -0.1364078291048761,
    "yield_applied": -0.9138792340673626,
    "queue_role_lead": -2.3567769910415644,
    "queue_role_courier": -2.2596740484093663,
    "queue_role_collector": -2.468979653741693,
    "queue_role_yield": -0.9138792341485683,
    "queue_advance": 0.27402615180027406,
    "move_target_blocked": -2.0206984072314365,
    "noop_move": -1.211567954715503,
    "intent_move_but_wait": -0.6584970058088642,
    "queue_relaxation_active": 0.05397617435568965,
    "in_corner": 0.0,
    "dead_end_depth": 0.0,
    "escape_macro_active": 0.0,
    "escape_macro_ticks_remaining": 0.0,
    "queue_eta_rank": -9.353644658960516e-06,
    "local_conflict_count": -0.07247311289188284,
    "cbs_timeout": -0.9937496035196806,
    "cbs_expanded_nodes": -0.03268424721553124,
    "dropoff_attempt_same_order_streak": -2.177802809308656,
    "dropoff_watchdog_triggered": -4.086222863318321,
    "loop_two_cycle_count": -0.9855259251749986,
    "coverage_gain": 1.5572289242038015,
    "serviceable_dropoff": 1.428388979772336,
    "ordering_rank": -0.01964756046472268,
    "ordering_score": -0.001106627852584936,
    "dropoff_target_pending": 0.0,
    "dropoff_target_in_progress": 1.5284187039509145,
    "wait_reason_blocked_by_vertex_reservation": 0.0,
    "wait_reason_blocked_by_edge_reservation": -1.1681866666278535,
    "wait_reason_forbidden_queue_zone": -1.2632586438874156,
    "wait_reason_prohibited_repeat_move": -2.9700899694116214,
    "wait_reason_no_path_with_constraints": 0.0,
    "wait_reason_timeout_fallback": 0.0,
    "stand_failure_count_recent": 0.010529369411954224,
    "stand_success_count_recent": 0.022322815861690305,
    "stand_cooldown_ticks_remaining": -0.013034541969718769,
    "kind_failure_count_recent": -0.05543131712245978,
    "repeated_same_stand_no_delta_streak": -0.016372218213656274,
    "contention_at_stand_proxy": -0.18831204206181695,
    "time_since_last_conversion_tick": -0.003994583971306481,
    "last_conversion_was_pickup": -0.06791327331618578,
    "last_conversion_was_dropoff": 0.10342159767002897
  },
  "ordering_weights": {
    "bias": -3.27048337280645,
    "carrying_active": -2.7432670433522826,
    "queue_role_lead": 2.1901446956508095,
    "queue_role_courier": 2.576150974137771,
    "blocked_ticks": 0.0042754617754022705,
    "local_conflict_count": 1.2743119386586323,
    "dist_to_goal_proxy": 0.021924274222609962,
    "dropoff_watchdog_pressure": -0.06123097351569475,
    "choke_occupancy_proxy": 0.3057182794722199
  },
  "metrics": {
    "rows_train": 144000,
    "rows_validation": 36000,
    "mae": 1.4382587277659031,
    "rmse": 3.7940606906235526,
    "r2": 0.9768273052455787
  },
  "dedup": {
    "strategy": "downweight",
    "signature_kind": "action",
    "runs_total": 60,
    "runs_kept": 60,
    "signature_clusters": 58,
    "duplicated_clusters": 1,
    "duplicate_runs": 2,
    "max_cluster_size": 3,
    "top_cluster_sizes": [
      3,
      1,
      1,
      1,
      1
    ],
    "effective_run_weight_sum": 58.0,
    "signature_columns": [
      "tick",
      "bot_id",
      "action_kind",
      "action_dx",
      "action_dy",
      "action_item_kind",
      "action_order_id",
      "goal_cell_x",
      "goal_cell_y"
    ]
  },
  "metrics_v2": {
    "pickup": {
      "rows_train": 2773,
      "rows_validation": 705,
      "logloss": 0.6890350106283816,
      "auc": 0.8743464265113596
    },
    "dropoff": {
      "rows_train": 3280,
      "rows_validation": 850,
      "logloss": 0.5769769152961682,
      "auc": 0.9653106714962385
    },
    "ordering": {
      "mae": 0.041850954550903215,
      "rmse": 0.1924971898961416,
      "r2": 0.9978141754768944
    }
  }
}