{
  "schema_version": "1.2.0",
  "mode": "expert",
  "feature_columns": [
    "dist_to_nearest_active_item",
    "dist_to_dropoff",
    "inventory_util",
    "local_congestion",
    "teammate_proximity",
    "order_urgency",
    "blocked_ticks",
    "queue_distance",
    "queue_slot_index",
    "is_queue_violation",
    "near_dropoff_blocking",
    "repeated_failed_move_count",
    "conflict_degree",
    "yield_applied",
    "queue_role_lead",
    "queue_role_courier",
    "queue_role_collector",
    "queue_role_yield",
    "queue_advance",
    "move_target_blocked",
    "noop_move",
    "intent_move_but_wait",
    "queue_relaxation_active",
    "in_corner",
    "dead_end_depth",
    "escape_macro_active",
    "escape_macro_ticks_remaining",
    "queue_eta_rank",
    "local_conflict_count",
    "cbs_timeout",
    "cbs_expanded_nodes",
    "dropoff_attempt_same_order_streak",
    "dropoff_watchdog_triggered",
    "loop_two_cycle_count",
    "coverage_gain",
    "serviceable_dropoff",
    "ordering_rank",
    "ordering_score",
    "dropoff_target_pending",
    "dropoff_target_in_progress",
    "wait_reason_blocked_by_vertex_reservation",
    "wait_reason_blocked_by_edge_reservation",
    "wait_reason_forbidden_queue_zone",
    "wait_reason_prohibited_repeat_move",
    "wait_reason_no_path_with_constraints",
    "wait_reason_timeout_fallback",
    "stand_failure_count_recent",
    "stand_success_count_recent",
    "stand_cooldown_ticks_remaining",
    "kind_failure_count_recent",
    "repeated_same_stand_no_delta_streak",
    "contention_at_stand_proxy",
    "time_since_last_conversion_tick",
    "last_conversion_was_pickup",
    "last_conversion_was_dropoff"
  ],
  "normalization": {
    "mean": [
      5.665816666666666,
      13.8951,
      0.3393222222222222,
      0.7009833333333333,
      11.279396296296296,
      2.6799166666666667,
      21.887291666666666,
      26.381266666666665,
      -0.8538666666666667,
      0.027066666666666666,
      0.053233333333333334,
      0.19685,
      0.33558333333333334,
      0.053233333333333334,
      0.07200833333333333,
      0.08788333333333333,
      0.536875,
      0.053233333333333334,
      0.08853333333333334,
      0.010591666666666666,
      0.19349166666666667,
      0.03345833333333333,
      0.0469,
      0.0,
      0.0,
      0.0,
      0.0,
      3543.616791666667,
      0.00845,
      0.09766666666666667,
      0.0365,
      0.3157333333333333,
      0.0029916666666666668,
      5.6023,
      0.09819166666666666,
      0.049683333333333336,
      0.2375,
      6.820777083333334,
      0.0,
      0.004541666666666667,
      0.0,
      0.0008916666666666667,
      0.0008166666666666667,
      0.03175833333333333,
      0.0,
      3.3333333333333335e-05,
      0.1265,
      0.0319,
      0.2089,
      2.918175,
      0.8066583333333334,
      0.0,
      126.65580833333334,
      0.5491833333333334,
      0.17768333333333333
    ],
    "std": [
      4.05358748514476,
      9.299247065757527,
      0.34396013963004635,
      1.5219030958164044,
      5.022798952233126,
      1.2142748150187785,
      56.831530466501874,
      42.2281719044947,
      0.539624915000122,
      0.16227773175091592,
      0.22449843107593329,
      0.39761800449677837,
      0.8957774052309102,
      0.22449843107593329,
      0.25850170843514536,
      0.283125154402705,
      0.49863838036697494,
      0.22449843107593329,
      0.4688054133172478,
      0.10236934728662134,
      0.3950349878140191,
      0.17983012334947912,
      0.2114246674349992,
      1.0,
      1.0,
      1.0,
      1.0,
      4726.029939601493,
      0.09528167452348851,
      0.2968634179027265,
      0.19105256693730482,
      3.7277780417949904,
      0.05461425269306742,
      15.348334916530847,
      0.29757362662690534,
      0.21728989788350087,
      2.670410783006989,
      47.627349848855836,
      1.0,
      0.06723867882815335,
      1.0,
      0.029847472208249428,
      0.02856570885208736,
      0.17535604237442812,
      1.0,
      0.005773406466049504,
      1.085931742790494,
      0.21404607759389876,
      1.41647830551689,
      6.247045675307248,
      3.3639030901514615,
      1.0,
      73.59872093836456,
      0.49757511967764445,
      0.3822459501275179
    ]
  },
  "heads": {
    "pickup": {
      "type": "ridge_logit",
      "bias": 0.801334265916131,
      "weights": [
        0.0459400961865149,
        0.03166132158736051,
        0.01887557170080821,
        0.12256068192098035,
        -0.1420875393506338,
        0.0769130733616344,
        0.5523039600063242,
        -0.03300684781870576,
        1.240909055794602e-13,
        -1.5539074329306532e-12,
        -3.8132206261146396e-13,
        -0.04850578902685321,
        -0.019059515950014903,
        -3.779154749790756e-13,
        1.8859619909666086e-12,
        -1.8720135419624417e-12,
        0.028234846677752067,
        -3.804325531592188e-13,
        -1.95819288158024e-13,
        1.0113098844221315e-13,
        -4.633893995028827e-12,
        -3.798961023514019e-14,
        -0.012178352077141021,
        0.0,
        0.0,
        0.0,
        0.0,
        -0.0901855974567513,
        0.014698678258394798,
        0.012961664275387303,
        -0.018760079159277878,
        -3.241598504720328e-13,
        -1.650399908941968e-13,
        -0.035893854188445484,
        0.02226022142051403,
        -0.15722138185791001,
        0.06264882117264688,
        0.4836756777217591,
        0.0,
        -7.143668468520562e-13,
        0.0,
        1.0567484742452173e-13,
        8.9722675520632e-15,
        -6.458720317257274e-13,
        0.0,
        -6.71220680352912e-14,
        -0.013070490013260435,
        0.020437483999704634,
        -0.018207937473911022,
        -0.07172430392055754,
        0.015673481626488083,
        0.0,
        -0.04246104560891619,
        0.00576081189401814,
        0.014102733339771847
      ],
      "clip": 8.0,
      "temperature": 0.7
    },
    "dropoff": {
      "type": "ridge_logit",
      "bias": 0.027636419366947454,
      "weights": [
        -0.022397792836706502,
        -1.2748840020667308e-12,
        -0.05259926558135595,
        -0.1362879405195991,
        -0.051893077707232366,
        0.08848953700128168,
        0.09533421625990697,
        -0.047703479901984064,
        0.017538612363159907,
        0.052030433643426854,
        -0.055686333211877596,
        -1.5119136537937626e-12,
        0.07345482842829373,
        -0.055686333211641015,
        0.04409516042618312,
        -0.08841902275098515,
        0.09220815418437406,
        -0.055686333212006424,
        -0.1067976126450998,
        6.579827799666096e-13,
        -1.2614146646079565e-12,
        -9.848058251224544e-14,
        0.0054432866591959134,
        0.0,
        0.0,
        0.0,
        0.0,
        0.07565714470577593,
        8.710294378106375e-05,
        -0.0145447554060832,
        -0.0020666154998139306,
        -0.10673780787510517,
        6.73364063089503e-14,
        -0.0045642268566097755,
        0.04806082014178017,
        -0.00811729464880629,
        -0.6485349811242246,
        0.35196904601713186,
        0.0,
        -0.02623201639284585,
        0.0,
        1.3968266651141547e-13,
        8.674795895119493e-14,
        -5.354229328422927e-13,
        0.0,
        2.9866004629780076e-14,
        1.4168866744286734e-13,
        7.026552245657941e-13,
        8.049189293453945e-14,
        -0.020317652909445403,
        -0.04379047237962228,
        0.0,
        -0.15901762744727851,
        0.0012628938829753816,
        -0.03079766254232804
      ],
      "clip": 8.0,
      "temperature": 3.0
    },
    "ordering": {
      "type": "ridge",
      "bias": -1.3621166666666842,
      "weights": [
        -0.0019192034766582669,
        0.00047689919470080537,
        0.0014962216977313712,
        0.0008406472960727225,
        -0.004033953836006048,
        -0.005652624575668344,
        -0.0002965511198527658,
        -0.1422324239640011,
        0.057734401369166105,
        0.0049936445942920455,
        -0.025365928652541978,
        -0.0013093378041320232,
        -0.0002019130337673225,
        -0.02536592865229365,
        -0.08093972796572255,
        -0.10431373305569348,
        -0.16392444256053457,
        -0.025365928652967665,
        -0.005262046295393151,
        -0.00022070480066477044,
        -0.5918619202532408,
        0.005320073802144546,
        -0.005085593333075878,
        0.0,
        0.0,
        0.0,
        0.0,
        -0.002925876744791489,
        0.10747226510794855,
        0.008902223170291117,
        -0.00039158750688799093,
        -0.0012663513504429214,
        0.0021672021399676113,
        -3.0721424585815567,
        0.0888745986827762,
        0.011831777164289849,
        0.0008196410752084902,
        0.00019022766502588026,
        0.0,
        -0.00451078437466481,
        0.0,
        -0.0007842623450103147,
        -0.0012629371578399432,
        0.0005874822466272659,
        0.0,
        -0.0002901621895619279,
        -0.000343406873941706,
        0.0028437390150152864,
        0.0005444768435685971,
        0.0009536390832633374,
        -0.00041950912131804495,
        0.0,
        -0.0003250349261110112,
        -0.0006678312658323959,
        0.0011303527706670088
      ],
      "clip": 12.0
    }
  },
  "calibration": {
    "pickup_temp": 0.7,
    "dropoff_temp": 3.0
  },
  "weights": {
    "bias": 1.7925705950556543,
    "dist_to_nearest_active_item": -0.006328404302853776,
    "dist_to_dropoff": -0.004173030600507076,
    "inventory_util": -0.23291577085110596,
    "local_congestion": 0.04381295973492027,
    "teammate_proximity": 0.026491941989919825,
    "order_urgency": 0.0552532742884678,
    "blocked_ticks": -0.0007457355182600161,
    "queue_distance": -0.015624375764300622,
    "queue_slot_index": 0.26455303515182355,
    "is_queue_violation": -0.8222852613712367,
    "near_dropoff_blocking": -0.5548885021707417,
    "repeated_failed_move_count": -0.47146944358822973,
    "conflict_degree": -0.18978970944571213,
    "yield_applied": -0.5548885002267181,
    "queue_role_lead": -1.3264404132046592,
    "queue_role_courier": -1.3162587076167704,
    "queue_role_collector": -1.544258125739924,
    "queue_role_yield": -0.5548885014171868,
    "queue_advance": 0.2933125055896277,
    "move_target_blocked": -1.802237505210175,
    "noop_move": -1.2634381613346277,
    "intent_move_but_wait": -0.9135124172571881,
    "queue_relaxation_active": -0.26266778616779274,
    "in_corner": 0.0,
    "dead_end_depth": 0.0,
    "escape_macro_active": 0.0,
    "escape_macro_ticks_remaining": 0.0,
    "queue_eta_rank": 1.420553069608456e-06,
    "local_conflict_count": -0.28548764692527157,
    "cbs_timeout": -1.3823658638791678,
    "cbs_expanded_nodes": 0.043047731852098314,
    "dropoff_attempt_same_order_streak": -1.9961687324523552,
    "dropoff_watchdog_triggered": -2.884806666021977,
    "loop_two_cycle_count": -0.9780831718046559,
    "coverage_gain": 1.7387643900461875,
    "serviceable_dropoff": 2.3508108081301113,
    "ordering_rank": -0.042061033728103624,
    "ordering_score": -0.020800637474229406,
    "dropoff_target_pending": 0.0,
    "dropoff_target_in_progress": 2.409933018170273,
    "wait_reason_blocked_by_vertex_reservation": 0.0,
    "wait_reason_blocked_by_edge_reservation": -0.6932242064186787,
    "wait_reason_forbidden_queue_zone": -0.7004345478704798,
    "wait_reason_prohibited_repeat_move": -2.4252771177447294,
    "wait_reason_no_path_with_constraints": 0.0,
    "wait_reason_timeout_fallback": -2.8369408823670907,
    "stand_failure_count_recent": -0.04981191348820009,
    "stand_success_count_recent": 0.022968246493147652,
    "stand_cooldown_ticks_remaining": -0.022462405463024634,
    "kind_failure_count_recent": -0.004785249016092733,
    "repeated_same_stand_no_delta_streak": -0.0005207924945475362,
    "contention_at_stand_proxy": 0.0,
    "time_since_last_conversion_tick": -0.0035426701141930083,
    "last_conversion_was_pickup": -0.21122175625391823,
    "last_conversion_was_dropoff": -0.08907412378822369
  },
  "ordering_weights": {
    "bias": -1.8543782282224432,
    "carrying_active": -3.260803996412745,
    "queue_role_lead": 1.2960292377703964,
    "queue_role_courier": 1.4052872053043475,
    "blocked_ticks": 0.0030429779123639132,
    "local_conflict_count": 1.0261068216087574,
    "dist_to_goal_proxy": 0.01117320767797829,
    "dropoff_watchdog_pressure": -0.05850357872296806,
    "choke_occupancy_proxy": 0.07737906104640295
  },
  "metrics": {
    "rows_train": 120000,
    "rows_validation": 33000,
    "mae": 2.10071137217731,
    "rmse": 5.011558513438159,
    "r2": 0.9781160548959315
  },
  "metrics_v2": {
    "pickup": {
      "rows_train": 2237,
      "rows_validation": 446,
      "logloss": 0.5881609709562963,
      "auc": 0.8483604045357034
    },
    "dropoff": {
      "rows_train": 3730,
      "rows_validation": 265,
      "logloss": 0.739583978060501,
      "auc": 0.4855374510546924
    },
    "ordering": {
      "mae": 0.042288121147228803,
      "rmse": 0.17249198384705036,
      "r2": 0.9993584011802108
    }
  }
}