{
  "schema_version": "1.2.0",
  "mode": "expert",
  "feature_columns": [
    "dist_to_nearest_active_item",
    "dist_to_dropoff",
    "inventory_util",
    "local_congestion",
    "teammate_proximity",
    "order_urgency",
    "blocked_ticks",
    "queue_distance",
    "queue_slot_index",
    "is_queue_violation",
    "near_dropoff_blocking",
    "repeated_failed_move_count",
    "conflict_degree",
    "yield_applied",
    "queue_role_lead",
    "queue_role_courier",
    "queue_role_collector",
    "queue_role_yield",
    "queue_advance",
    "move_target_blocked",
    "noop_move",
    "intent_move_but_wait",
    "queue_relaxation_active",
    "in_corner",
    "dead_end_depth",
    "escape_macro_active",
    "escape_macro_ticks_remaining",
    "queue_eta_rank",
    "local_conflict_count",
    "cbs_timeout",
    "cbs_expanded_nodes",
    "dropoff_attempt_same_order_streak",
    "dropoff_watchdog_triggered",
    "loop_two_cycle_count",
    "coverage_gain",
    "serviceable_dropoff",
    "ordering_rank",
    "ordering_score",
    "dropoff_target_pending",
    "dropoff_target_in_progress",
    "wait_reason_blocked_by_vertex_reservation",
    "wait_reason_blocked_by_edge_reservation",
    "wait_reason_forbidden_queue_zone",
    "wait_reason_prohibited_repeat_move",
    "wait_reason_no_path_with_constraints",
    "wait_reason_timeout_fallback",
    "stand_failure_count_recent",
    "stand_success_count_recent",
    "stand_cooldown_ticks_remaining",
    "kind_failure_count_recent",
    "repeated_same_stand_no_delta_streak",
    "contention_at_stand_proxy",
    "time_since_last_conversion_tick",
    "last_conversion_was_pickup",
    "last_conversion_was_dropoff"
  ],
  "normalization": {
    "mean": [
      5.0258666666666665,
      15.879766666666667,
      0.4383685185185185,
      0.5191111111111111,
      11.150116049382717,
      2.7143888888888887,
      9.652383333333333,
      13.54251111111111,
      -0.7701833333333333,
      0.026883333333333332,
      0.05105,
      0.1680888888888889,
      0.42523333333333335,
      0.05105,
      0.07245555555555555,
      0.11326111111111112,
      0.6465666666666666,
      0.05105,
      0.16293333333333335,
      0.00625,
      0.16844444444444445,
      0.013433333333333334,
      0.0825111111111111,
      0.0,
      0.0,
      0.0,
      0.0,
      5750.327666666667,
      0.008766666666666667,
      0.22405555555555556,
      0.03111111111111111,
      0.12775,
      0.0010222222222222223,
      11.567822222222222,
      0.2578611111111111,
      0.13051666666666667,
      2.3,
      11.445929166666666,
      0.0,
      0.005622222222222222,
      0.0,
      0.0031888888888888887,
      0.0015888888888888888,
      0.00965,
      0.0,
      0.0,
      0.2676222222222222,
      0.06326111111111112,
      0.36633333333333334,
      0.14753333333333332,
      0.6207777777777778,
      0.16324444444444444,
      110.3321611111111,
      0.5934888888888888,
      0.17467777777777777
    ],
    "std": [
      3.649480605967558,
      10.360863839521834,
      0.39515470325271784,
      1.0692839186883116,
      4.866027624510533,
      1.2704914464222492,
      37.65570240699497,
      31.520067920204756,
      0.7640614211421604,
      0.16174244873323212,
      0.22009974443419963,
      0.373945202297058,
      1.0024852179569643,
      0.22009974443419963,
      0.2592407144425647,
      0.3169117098199239,
      0.47803578550378656,
      0.22009974443419963,
      0.8709875978195989,
      0.07880950133074056,
      0.3742604889381818,
      0.11512114874726055,
      0.2751418318873395,
      1.0,
      1.0,
      1.0,
      1.0,
      4916.063036259707,
      0.10382052355440667,
      0.41695882720029676,
      0.18326934910395587,
      1.9052170899197347,
      0.03195586462530183,
      20.71669670503469,
      0.43745715045893846,
      0.33687099368881396,
      3.4942810419312296,
      34.57395945687358,
      1.0,
      0.07477040082483291,
      1.0,
      0.05638013725190112,
      0.03982918930869237,
      0.09775928344663742,
      1.0,
      1.0,
      1.7302088864114886,
      0.3638119609524937,
      1.92063933221322,
      1.5145371584891685,
      3.0393167096780807,
      0.9658710094591203,
      77.54638022282492,
      0.4911820717965193,
      0.3796912584303135
    ]
  },
  "heads": {
    "pickup": {
      "type": "ridge_logit",
      "bias": 0.8199639465524158,
      "weights": [
        -0.027810328217811413,
        0.01915296187762293,
        0.017892681044958704,
        0.1582136864970659,
        -0.07025458259087848,
        0.01004661549093019,
        0.6343952326866308,
        -0.04463433415474793,
        1.4043663525708213e-12,
        -5.464019445848721e-12,
        3.0795053800856496e-12,
        -0.0854158445442543,
        -0.19023614232678232,
        3.074897433532396e-12,
        -2.4475596600981796e-12,
        -9.335891819790954e-12,
        0.02972765152580212,
        3.0777761490348236e-12,
        -1.957476085552363e-12,
        9.057069597019988e-13,
        -2.0618925373077674e-11,
        1.6914200528248322e-12,
        -0.00020710408293181517,
        0.0,
        0.0,
        0.0,
        0.0,
        -0.05734707608257007,
        0.019829201815815788,
        0.027421820585579185,
        0.007510119875027528,
        -0.4863942139260103,
        -8.761625834589744e-13,
        -0.0397146108043717,
        0.057087251256912816,
        -0.4091955136156884,
        -0.007013330757999143,
        0.7075339778809054,
        0.0,
        -2.4365778960422284e-12,
        0.0,
        2.61147107923898e-12,
        7.547058655217308e-13,
        -2.395778709573792e-12,
        0.0,
        0.0,
        -0.001466040172758852,
        0.013934088422668908,
        -0.051248943103559985,
        -0.0272017133641995,
        0.0011247639326339082,
        -7.73598080759684e-12,
        -0.06382441747162688,
        -0.017967281503622964,
        -0.02554098835224142
      ],
      "clip": 8.0,
      "temperature": 2.8000000000000003
    },
    "dropoff": {
      "type": "ridge_logit",
      "bias": 0.5292326798356685,
      "weights": [
        -0.029985615311702497,
        -1.2566650653957171e-11,
        -0.012037855137824958,
        -0.08097002737920234,
        -0.03818376676260177,
        0.024872397710261722,
        0.05775157102091729,
        -0.07315351762133483,
        -0.04823003481040474,
        0.0317439908151455,
        -0.06433471550750797,
        -3.511348608039308e-13,
        0.05855686038035899,
        -0.06433471550667991,
        0.05944946121079884,
        -0.16771352361657438,
        0.1515467815860391,
        -0.06433471550680553,
        0.3726240954653299,
        1.4184366893868309e-13,
        -3.815437660697225e-12,
        2.396364180770543e-13,
        -0.009915273831035108,
        0.0,
        0.0,
        0.0,
        0.0,
        0.19209674329810725,
        0.0008261211296736535,
        0.009135483845255005,
        -0.004859948333418909,
        -0.1595122201895748,
        1.3732897135038147e-13,
        -0.09128183830984399,
        0.08686237027996004,
        -0.0075865154162410835,
        -0.21719547437245543,
        0.23078300497664747,
        0.0,
        -0.03418033024142111,
        0.0,
        1.91675256530989e-13,
        1.714000069332068e-13,
        -3.438939162126929e-13,
        0.0,
        0.0,
        1.249267159199499e-12,
        1.4377716563093462e-12,
        2.988680958071924e-12,
        2.910415919583278e-13,
        -0.07148719536521221,
        -9.039761702121446e-13,
        -0.15762572931655533,
        -0.017930641948980194,
        -0.042206905525384156
      ],
      "clip": 8.0,
      "temperature": 1.0
    },
    "ordering": {
      "type": "ridge",
      "bias": -2.4479916849581387,
      "weights": [
        -0.006025476032716048,
        -0.00016497745275970483,
        -0.0009238830198431938,
        -0.0008437319787770873,
        -0.0026984472577741077,
        -0.007232668774917559,
        0.006189968739307888,
        -0.38479211071659425,
        0.18822642298002476,
        0.00698647923300815,
        -0.08988131155046758,
        -0.0013830956214049884,
        0.001199002901291761,
        -0.0898813115520586,
        -0.2895337761461019,
        -0.4135406092451622,
        -0.5764877522112092,
        -0.08988131156011651,
        -0.030819582974290823,
        -0.0011528622336986988,
        -0.5620393480482491,
        0.0006229846296058861,
        -0.003461851139950867,
        0.0,
        0.0,
        0.0,
        0.0,
        0.0029100183558167145,
        0.11498977704722016,
        0.007990379535913712,
        -0.002475269265215587,
        -0.010074488357243392,
        0.00214132974859835,
        -4.144421693590318,
        0.12942208526003599,
        0.017119457935778962,
        -0.003834969492070137,
        0.010226784701409624,
        0.0,
        -0.011177088602801054,
        0.0,
        5.9382515107230375e-06,
        -0.0009722548184458333,
        0.0025686496015825794,
        0.0,
        0.0,
        0.0012327125799693726,
        -0.0016419015356418695,
        -0.0017756987688584127,
        -0.00013326076794668653,
        -0.001120313372371422,
        -0.0023313692586081603,
        -0.006583350877643501,
        -0.005014402811745984,
        -0.004204816650538002
      ],
      "clip": 12.0
    }
  },
  "calibration": {
    "pickup_temp": 2.8000000000000003,
    "dropoff_temp": 1.0
  },
  "weights": {
    "bias": 2.9501507784516856,
    "dist_to_nearest_active_item": -0.009161670773555123,
    "dist_to_dropoff": -0.0011572642970963756,
    "inventory_util": 0.3237376532398474,
    "local_congestion": 0.04690734038619199,
    "teammate_proximity": 0.04885587627396631,
    "order_urgency": -0.08695153759123943,
    "blocked_ticks": -0.0013769070878723844,
    "queue_distance": -0.025008181749718836,
    "queue_slot_index": 0.3189722640715338,
    "is_queue_violation": -0.8747881586627438,
    "near_dropoff_blocking": -0.8507999447544616,
    "repeated_failed_move_count": -0.4708173919907016,
    "conflict_degree": -0.14799880549065889,
    "yield_applied": -0.8507999455112503,
    "queue_role_lead": -2.2741380322259515,
    "queue_role_courier": -2.2000057792024412,
    "queue_role_collector": -2.34697157677411,
    "queue_role_yield": -0.8507999453435312,
    "queue_advance": 0.24648747426121817,
    "move_target_blocked": -1.901324216277385,
    "noop_move": -1.3485268731926485,
    "intent_move_but_wait": -0.5953125534163812,
    "queue_relaxation_active": -0.04731269156126333,
    "in_corner": 0.0,
    "dead_end_depth": 0.0,
    "escape_macro_active": 0.0,
    "escape_macro_ticks_remaining": 0.0,
    "queue_eta_rank": -1.5077854139904224e-05,
    "local_conflict_count": -0.09640522284042528,
    "cbs_timeout": -0.8611449333338762,
    "cbs_expanded_nodes": -0.04832498486337808,
    "dropoff_attempt_same_order_streak": -2.1580369457466113,
    "dropoff_watchdog_triggered": -3.8270741325865516,
    "loop_two_cycle_count": -0.9858001174607339,
    "coverage_gain": 1.4641271816027999,
    "serviceable_dropoff": 1.5946830168132793,
    "ordering_rank": -0.014933576654334273,
    "ordering_score": -0.004379623951239122,
    "dropoff_target_pending": 0.0,
    "dropoff_target_in_progress": 1.6311529375367517,
    "wait_reason_blocked_by_vertex_reservation": 0.0,
    "wait_reason_blocked_by_edge_reservation": -1.4178735208192472,
    "wait_reason_forbidden_queue_zone": -1.3577658303731355,
    "wait_reason_prohibited_repeat_move": -2.9985019785557605,
    "wait_reason_no_path_with_constraints": 0.0,
    "wait_reason_timeout_fallback": 0.0,
    "stand_failure_count_recent": 0.018777665880943702,
    "stand_success_count_recent": -0.02296072453326392,
    "stand_cooldown_ticks_remaining": -0.03266354626578494,
    "kind_failure_count_recent": -0.062061143876133165,
    "repeated_same_stand_no_delta_streak": -0.014435247016972505,
    "contention_at_stand_proxy": -0.165351539821004,
    "time_since_last_conversion_tick": -0.004311015468517463,
    "last_conversion_was_pickup": -0.391312135424242,
    "last_conversion_was_dropoff": -0.02475122842856923
  },
  "ordering_weights": {
    "bias": -3.263465766736049,
    "carrying_active": -2.4274205136346065,
    "queue_role_lead": 1.9526494835074504,
    "queue_role_courier": 2.647032711177918,
    "blocked_ticks": 0.004458915965145078,
    "local_conflict_count": 1.2104988915613177,
    "dist_to_goal_proxy": 0.02198408184559738,
    "dropoff_watchdog_pressure": -0.07357316806303245,
    "choke_occupancy_proxy": 0.29248042133905544
  },
  "metrics": {
    "rows_train": 180000,
    "rows_validation": 42000,
    "mae": 1.444181551669308,
    "rmse": 3.77789278880044,
    "r2": 0.9777135465767243
  },
  "dedup": {
    "strategy": "downweight",
    "signature_kind": "action",
    "runs_total": 74,
    "runs_kept": 74,
    "signature_clusters": 68,
    "duplicated_clusters": 2,
    "duplicate_runs": 6,
    "max_cluster_size": 6,
    "top_cluster_sizes": [
      6,
      2,
      1,
      1,
      1
    ],
    "effective_run_weight_sum": 68.0,
    "signature_columns": [
      "tick",
      "bot_id",
      "action_kind",
      "action_dx",
      "action_dy",
      "action_item_kind",
      "action_order_id",
      "goal_cell_x",
      "goal_cell_y"
    ]
  },
  "metrics_v2": {
    "pickup": {
      "rows_train": 3771,
      "rows_validation": 891,
      "logloss": 0.6894047644589524,
      "auc": 0.8830366035856574
    },
    "dropoff": {
      "rows_train": 3603,
      "rows_validation": 997,
      "logloss": 0.6806008021533011,
      "auc": 0.9583899773423964
    },
    "ordering": {
      "mae": 0.05089730071888859,
      "rmse": 0.19101399485482598,
      "r2": 0.9980418024791643
    }
  }
}