{
  "schema_version": "1.2.0",
  "mode": "expert",
  "feature_columns": [
    "dist_to_nearest_active_item",
    "dist_to_dropoff",
    "inventory_util",
    "local_congestion",
    "teammate_proximity",
    "order_urgency",
    "blocked_ticks",
    "queue_distance",
    "queue_slot_index",
    "is_queue_violation",
    "near_dropoff_blocking",
    "repeated_failed_move_count",
    "conflict_degree",
    "yield_applied",
    "queue_role_lead",
    "queue_role_courier",
    "queue_role_collector",
    "queue_role_yield",
    "queue_advance",
    "move_target_blocked",
    "noop_move",
    "intent_move_but_wait",
    "queue_relaxation_active",
    "in_corner",
    "dead_end_depth",
    "escape_macro_active",
    "escape_macro_ticks_remaining",
    "queue_eta_rank",
    "local_conflict_count",
    "cbs_timeout",
    "cbs_expanded_nodes",
    "dropoff_attempt_same_order_streak",
    "dropoff_watchdog_triggered",
    "loop_two_cycle_count",
    "coverage_gain",
    "serviceable_dropoff",
    "ordering_rank",
    "ordering_score",
    "dropoff_target_pending",
    "dropoff_target_in_progress",
    "wait_reason_blocked_by_vertex_reservation",
    "wait_reason_blocked_by_edge_reservation",
    "wait_reason_forbidden_queue_zone",
    "wait_reason_prohibited_repeat_move",
    "wait_reason_no_path_with_constraints",
    "wait_reason_timeout_fallback",
    "stand_failure_count_recent",
    "stand_success_count_recent",
    "stand_cooldown_ticks_remaining",
    "kind_failure_count_recent",
    "repeated_same_stand_no_delta_streak",
    "contention_at_stand_proxy",
    "time_since_last_conversion_tick",
    "last_conversion_was_pickup",
    "last_conversion_was_dropoff"
  ],
  "normalization": {
    "mean": [
      5.063561728395062,
      16.074833333333334,
      0.4256008230452675,
      0.5308148148148149,
      11.133965706447189,
      2.7424074074074074,
      10.661913580246914,
      14.6825,
      -0.8079382716049383,
      0.026530864197530864,
      0.05250617283950617,
      0.16937654320987655,
      0.42650617283950615,
      0.05250617283950617,
      0.06996296296296296,
      0.0993395061728395,
      0.6485617283950618,
      0.05250617283950617,
      0.13972222222222222,
      0.006944444444444444,
      0.1697716049382716,
      0.014197530864197531,
      0.08226543209876543,
      0.0,
      0.0,
      0.0,
      0.0,
      5682.149895061729,
      0.009111111111111111,
      0.1862962962962963,
      0.03222222222222222,
      0.11577777777777777,
      0.0011358024691358025,
      11.422154320987655,
      0.2324567901234568,
      0.10461728395061728,
      2.0555555555555554,
      9.645608024691358,
      0.0,
      0.004932098765432099,
      0.0,
      0.003067901234567901,
      0.001308641975308642,
      0.010722222222222222,
      0.0,
      0.0,
      0.25220987654320987,
      0.0541358024691358,
      0.32400617283950617,
      0.15348148148148147,
      0.6410925925925925,
      0.16133333333333333,
      114.53563580246913,
      0.5807037037037037,
      0.17498765432098765
    ],
    "std": [
      3.654008879893117,
      10.487468063931127,
      0.3952180066197949,
      1.0755480154821921,
      4.935937503576614,
      1.255163805922644,
      39.56114575095537,
      32.9655838480279,
      0.6812759968206177,
      0.16070773921147372,
      0.223045454231316,
      0.3750841636488394,
      1.0021919880073347,
      0.223045454231316,
      0.25508458749286683,
      0.29911731592499935,
      0.4774195354782541,
      0.223045454231316,
      0.7883424848736685,
      0.0830434773826486,
      0.37543202726319846,
      0.11830452646267467,
      0.2747686859530555,
      1.0,
      1.0,
      1.0,
      1.0,
      4923.095566311045,
      0.10653209103248225,
      0.3893455872134406,
      0.18711256267581583,
      1.9693272524292382,
      0.03368252398331971,
      21.824769070680464,
      0.42239866340810783,
      0.30605964753526915,
      3.4716666222151096,
      33.67067999090691,
      1.0,
      0.07005550062058026,
      1.0,
      0.05530360943539615,
      0.03615147896682931,
      0.10299153447172009,
      1.0,
      1.0,
      1.6665392708055282,
      0.35107620266290895,
      1.793496894637124,
      1.556455764213478,
      3.1225415481337753,
      0.9924448922723773,
      76.99285409660713,
      0.4934439301567147,
      0.37995654377339805
    ]
  },
  "heads": {
    "pickup": {
      "type": "ridge_logit",
      "bias": 0.8980513783556403,
      "weights": [
        -0.023167966246825048,
        0.020779723650495623,
        0.007654405834951739,
        0.1647879944719866,
        -0.0761985143907145,
        -0.004052956985996193,
        0.5465009776937526,
        -0.04511248366226341,
        3.4835861347491033e-12,
        8.579026892237178e-13,
        -1.893465786403606e-12,
        -0.0784660855958646,
        -0.14083929319738936,
        -1.8985519682559752e-12,
        -9.231874763237242e-13,
        4.195632056779818e-12,
        0.03146459377110058,
        -1.9344729226786416e-12,
        -5.168871126197734e-13,
        2.6752696170526308e-12,
        3.600214150959158e-12,
        5.305482655862265e-13,
        0.01133545507315794,
        0.0,
        0.0,
        0.0,
        0.0,
        -0.0859305305398166,
        0.020428785787561004,
        0.03506558271161917,
        -0.004551860515250302,
        1.0215722328159526e-12,
        4.958495101012589e-13,
        -0.01767859827301872,
        0.048853252829873996,
        -0.40321134061637925,
        0.02662652746421798,
        0.8815862529948815,
        0.0,
        4.923246697055752e-13,
        0.0,
        6.033315110665851e-13,
        1.3448272250705053e-12,
        -6.496061457667311e-13,
        0.0,
        0.0,
        2.996705720402604e-05,
        0.012348828800207297,
        -0.046355163705759705,
        -0.025257783279987216,
        -0.00775840222625556,
        8.615851022429729e-12,
        -0.04633465348017254,
        -0.009021106882735616,
        -0.02296476185341093
      ],
      "clip": 8.0,
      "temperature": 3.0
    },
    "dropoff": {
      "type": "ridge_logit",
      "bias": 0.7410200950795887,
      "weights": [
        0.002862476783602247,
        -8.949363984649656e-12,
        -0.07351228679193876,
        -0.09039204966251146,
        -0.050572433152350126,
        0.04468548804144856,
        0.06680177594547065,
        -0.07403088823897022,
        -0.10083636278951076,
        0.06984044888851829,
        -0.08817394476972806,
        -1.2368002081785038e-12,
        0.07445413198038592,
        -0.08817394476997004,
        0.05400146632994665,
        0.05752583030192245,
        0.028661848162100413,
        -0.0881739447691456,
        0.043653544713346946,
        -9.938291107620824e-15,
        -4.2883329938820496e-13,
        -1.1418590704203994e-12,
        0.012407979052174499,
        0.0,
        0.0,
        0.0,
        0.0,
        0.18429186888954033,
        0.001592391259760464,
        0.01880834958936571,
        -0.004014439560402436,
        -0.2188018066985113,
        -1.7893328574869636e-13,
        -0.06776517831616949,
        0.07137800898570619,
        -0.014117455782796048,
        0.25559007790360433,
        0.35080909233040686,
        0.0,
        -0.06167657783974615,
        0.0,
        -1.3831182426583791e-13,
        2.5474068574149634e-13,
        -2.6575615223571977e-13,
        0.0,
        0.0,
        2.689964928298117e-13,
        -1.1271258851839293e-12,
        2.808810650773437e-13,
        5.519329460640004e-13,
        -0.04594496086196445,
        1.2147356937863833e-12,
        -0.17130328746119589,
        0.05992821671892628,
        -0.01783273794726874
      ],
      "clip": 8.0,
      "temperature": 0.6
    },
    "ordering": {
      "type": "ridge",
      "bias": -2.4359552163412697,
      "weights": [
        -0.00547606063826921,
        -0.00038326164485965534,
        0.0008108984360589946,
        -0.0009984751219403929,
        -0.004140787755168762,
        -0.007522957613184161,
        0.004780742918414994,
        -0.32089955331837794,
        0.15163994251798998,
        0.002570544416389163,
        -0.07193465026273065,
        -0.000568500123527916,
        0.0013853295487849596,
        -0.07193465026262665,
        -0.22704722842559513,
        -0.3187105901883481,
        -0.45834159759907106,
        -0.07193465026028728,
        -0.024215294313793736,
        -0.0009290506838616155,
        -0.563324188926203,
        0.0004891068102249471,
        -0.0026122238672770005,
        0.0,
        0.0,
        0.0,
        0.0,
        -0.0005294885988848007,
        0.11832031510256011,
        0.00867748289847762,
        -0.0008137027114722868,
        -0.008050211803029705,
        0.0028439572909724153,
        -4.36592909498874,
        0.12410055594047029,
        0.020517790030210408,
        0.00012429285652181156,
        0.004534782932812286,
        0.0,
        -0.009858959526848982,
        0.0,
        0.00014943949870224258,
        -0.0005056773344337068,
        0.0023464052167621848,
        0.0,
        0.0,
        0.00039310830230857084,
        -0.0017664502951528353,
        -0.000750393849961289,
        -0.0001320107851648437,
        -0.00026605471592110934,
        -0.00256319367393469,
        -0.0044689110900908375,
        -0.0048521327694316125,
        -0.0027996813926183623
      ],
      "clip": 12.0
    }
  },
  "calibration": {
    "pickup_temp": 3.0,
    "dropoff_temp": 0.6
  },
  "weights": {
    "bias": 3.0680737201238792,
    "dist_to_nearest_active_item": -0.0033615889317975016,
    "dist_to_dropoff": -0.001992232448280032,
    "inventory_util": 0.0033967492581511226,
    "local_congestion": 0.025276370043885863,
    "teammate_proximity": 0.04604818568559585,
    "order_urgency": -0.08032158520242903,
    "blocked_ticks": -0.0012815470610222277,
    "queue_distance": -0.02637926871454349,
    "queue_slot_index": 0.34511035229416526,
    "is_queue_violation": -0.8622708830543819,
    "near_dropoff_blocking": -0.9365343860190433,
    "repeated_failed_move_count": -0.4006652289442454,
    "conflict_degree": -0.13917293415253446,
    "yield_applied": -0.936534384933575,
    "queue_role_lead": -2.461181281078339,
    "queue_role_courier": -2.3785921057405526,
    "queue_role_collector": -2.5411907091407198,
    "queue_role_yield": -0.9365343856368158,
    "queue_advance": 0.25199297399408227,
    "move_target_blocked": -1.9451518922009985,
    "noop_move": -1.2552940241494823,
    "intent_move_but_wait": -0.537123870865097,
    "queue_relaxation_active": 0.03484994221551729,
    "in_corner": 0.0,
    "dead_end_depth": 0.0,
    "escape_macro_active": 0.0,
    "escape_macro_ticks_remaining": 0.0,
    "queue_eta_rank": -1.3621346952962188e-05,
    "local_conflict_count": -0.08586182626346713,
    "cbs_timeout": -0.8428954500070429,
    "cbs_expanded_nodes": -0.022084919725830165,
    "dropoff_attempt_same_order_streak": -2.1786533938149786,
    "dropoff_watchdog_triggered": -4.0527111168196726,
    "loop_two_cycle_count": -0.9858452599783756,
    "coverage_gain": 1.4983417902874168,
    "serviceable_dropoff": 1.4730722982267297,
    "ordering_rank": -0.014728141772947132,
    "ordering_score": -0.00145407420919386,
    "dropoff_target_pending": 0.0,
    "dropoff_target_in_progress": 1.4682982934124305,
    "wait_reason_blocked_by_vertex_reservation": 0.0,
    "wait_reason_blocked_by_edge_reservation": -1.3545694528094485,
    "wait_reason_forbidden_queue_zone": -1.5217308694996812,
    "wait_reason_prohibited_repeat_move": -3.111989715743711,
    "wait_reason_no_path_with_constraints": 0.0,
    "wait_reason_timeout_fallback": 0.0,
    "stand_failure_count_recent": 0.019018151591461672,
    "stand_success_count_recent": 0.01595511618831725,
    "stand_cooldown_ticks_remaining": -0.01437208615689814,
    "kind_failure_count_recent": -0.06262799103257347,
    "repeated_same_stand_no_delta_streak": -0.018306210363163225,
    "contention_at_stand_proxy": -0.1834493625822437,
    "time_since_last_conversion_tick": -0.004042561091784662,
    "last_conversion_was_pickup": -0.20742080181463382,
    "last_conversion_was_dropoff": 0.015101598288479014
  },
  "ordering_weights": {
    "bias": -3.3561307421973607,
    "carrying_active": -2.4391843767758523,
    "queue_role_lead": 1.9921427744622011,
    "queue_role_courier": 2.7469421011728827,
    "blocked_ticks": 0.004514450764133951,
    "local_conflict_count": 1.259558182387283,
    "dist_to_goal_proxy": 0.02226411407478832,
    "dropoff_watchdog_pressure": -0.06210511523379292,
    "choke_occupancy_proxy": 0.3327607958677208
  },
  "metrics": {
    "rows_train": 162000,
    "rows_validation": 39000,
    "mae": 1.3953143345260655,
    "rmse": 3.651898163034402,
    "r2": 0.9772254096195666
  },
  "dedup": {
    "strategy": "downweight",
    "signature_kind": "action",
    "runs_total": 67,
    "runs_kept": 67,
    "signature_clusters": 62,
    "duplicated_clusters": 2,
    "duplicate_runs": 5,
    "max_cluster_size": 5,
    "top_cluster_sizes": [
      5,
      2,
      1,
      1,
      1
    ],
    "effective_run_weight_sum": 62.0,
    "signature_columns": [
      "tick",
      "bot_id",
      "action_kind",
      "action_dx",
      "action_dy",
      "action_item_kind",
      "action_order_id",
      "goal_cell_x",
      "goal_cell_y"
    ]
  },
  "metrics_v2": {
    "pickup": {
      "rows_train": 3293,
      "rows_validation": 784,
      "logloss": 0.6907742232337478,
      "auc": 0.8794388665165949
    },
    "dropoff": {
      "rows_train": 3390,
      "rows_validation": 925,
      "logloss": 0.6577584203636043,
      "auc": 0.9592709689417891
    },
    "ordering": {
      "mae": 0.04780060877695844,
      "rmse": 0.19214624154592952,
      "r2": 0.9977003483701657
    }
  }
}