{
  "schema_version": "1.2.0",
  "mode": "hard",
  "feature_columns": [
    "dist_to_nearest_active_item",
    "dist_to_dropoff",
    "inventory_util",
    "local_congestion",
    "teammate_proximity",
    "order_urgency",
    "blocked_ticks",
    "queue_distance",
    "queue_slot_index",
    "is_queue_violation",
    "near_dropoff_blocking",
    "repeated_failed_move_count",
    "conflict_degree",
    "yield_applied",
    "queue_role_lead",
    "queue_role_courier",
    "queue_role_collector",
    "queue_role_yield",
    "queue_advance",
    "move_target_blocked",
    "noop_move",
    "intent_move_but_wait",
    "queue_relaxation_active",
    "in_corner",
    "dead_end_depth",
    "escape_macro_active",
    "escape_macro_ticks_remaining",
    "queue_eta_rank",
    "local_conflict_count",
    "cbs_timeout",
    "cbs_expanded_nodes",
    "dropoff_attempt_same_order_streak",
    "dropoff_watchdog_triggered",
    "loop_two_cycle_count",
    "coverage_gain",
    "serviceable_dropoff",
    "ordering_rank",
    "ordering_score",
    "dropoff_target_pending",
    "dropoff_target_in_progress",
    "wait_reason_blocked_by_vertex_reservation",
    "wait_reason_blocked_by_edge_reservation",
    "wait_reason_forbidden_queue_zone",
    "wait_reason_prohibited_repeat_move",
    "wait_reason_no_path_with_constraints",
    "wait_reason_timeout_fallback",
    "stand_failure_count_recent",
    "stand_success_count_recent",
    "stand_cooldown_ticks_remaining",
    "kind_failure_count_recent",
    "repeated_same_stand_no_delta_streak",
    "contention_at_stand_proxy",
    "time_since_last_conversion_tick",
    "last_conversion_was_pickup",
    "last_conversion_was_dropoff"
  ],
  "normalization": {
    "mean": [
      3.7921666666666667,
      9.947666666666667,
      0.4277222222222222,
      0.13866666666666666,
      9.091666666666667,
      2.0675,
      3.8935,
      1.8448333333333333,
      -0.8238333333333333,
      0.07133333333333333,
      0.09233333333333334,
      0.1375,
      0.13866666666666666,
      0.09233333333333334,
      0.13933333333333334,
      0.124,
      0.6443333333333333,
      0.09233333333333334,
      0.23483333333333334,
      0.0,
      0.1375,
      0.0008333333333333334,
      0.042,
      0.0,
      0.0,
      0.0,
      0.0,
      7342.780333333333,
      0.0026666666666666666,
      0.07416666666666667,
      0.005833333333333334,
      0.018166666666666668,
      0.00016666666666666666,
      11.067666666666666,
      0.3933333333333333,
      0.238,
      1.25,
      17.386708333333335,
      0.0,
      0.014666666666666666,
      0.0,
      0.0,
      0.0008333333333333334,
      0.0,
      0.0,
      0.0,
      1.799,
      0.08766666666666667,
      1.8276666666666668,
      0.7841666666666667,
      2.695333333333333,
      0.001,
      56.341166666666666,
      0.43683333333333335,
      0.518
    ],
    "std": [
      2.737207574437049,
      6.245926236800716,
      0.35667964237386834,
      0.4712800535656998,
      3.7727826453280993,
      1.1126292059801415,
      22.433965864658585,
      4.044348728644562,
      0.5184579432209414,
      0.25738082463324435,
      0.28949592205916974,
      0.3443744328488978,
      0.4712800535656998,
      0.28949592205916974,
      0.3462940304936768,
      0.3295815528818322,
      0.47871483044594393,
      0.28949592205916974,
      0.572439201041376,
      1.0,
      0.34437443284889785,
      0.02885548282196797,
      0.20058913230780973,
      1.0,
      1.0,
      1.0,
      1.0,
      4416.132322415157,
      0.051570878948836565,
      0.2620419283668593,
      0.0761531716710181,
      0.15759644313527157,
      0.012908868613820844,
      13.388667641786549,
      0.4884897360459299,
      0.42585913163862055,
      1.7853571071357126,
      33.36280033582709,
      1.0,
      0.12021462288571869,
      1.0,
      1.0,
      0.02885548282196797,
      1.0,
      1.0,
      1.0,
      4.345833138382866,
      0.40822529182902045,
      3.9419497572760727,
      3.5173260637718657,
      6.276956127154484,
      0.03160696125855821,
      64.20436204266464,
      0.4959939235738904,
      0.4996758949559204
    ]
  },
  "heads": {
    "pickup": {
      "type": "ridge_logit",
      "bias": 0.713447107673143,
      "weights": [
        0.053567473077784734,
        -0.07372221318298695,
        -0.010446652216259374,
        0.004507018450786634,
        -0.10737791406446905,
        0.0045633062975557704,
        0.4211562781277242,
        2.6689564334113585e-13,
        1.8431607185809883e-13,
        2.575139308243094e-14,
        1.3792222655999389e-14,
        -0.13566299538734675,
        0.0045070184507865685,
        1.3625161687910452e-14,
        6.253447257924284e-14,
        -1.4471261434270715e-13,
        -4.580272195950274e-13,
        1.5911364789591254e-14,
        2.3237404337833863e-13,
        0.0,
        5.438219601605228e-14,
        2.1008459215541718e-14,
        2.344815185962848e-13,
        0.0,
        0.0,
        0.0,
        0.0,
        0.09424844972759507,
        2.465570977994908e-15,
        0.018053109520239922,
        3.251948030058958e-14,
        5.508251058945823e-14,
        4.93858368648255e-15,
        -0.07364986089963457,
        0.09949933671807769,
        -0.0977643769511659,
        0.03808753426781569,
        0.418711682640901,
        0.0,
        -3.884389743818641e-14,
        0.0,
        0.0,
        2.1008459215923123e-14,
        0.0,
        0.0,
        0.0,
        -0.044714644192033526,
        0.04244734408523557,
        -0.026775451193027478,
        -0.02815359699010238,
        0.021852512726848412,
        2.2781729834341147e-14,
        -0.021293306220822397,
        -0.1332875725978811,
        -0.20590662987805833
      ],
      "clip": 8.0,
      "temperature": 3.0
    },
    "dropoff": {
      "type": "ridge_logit",
      "bias": 0.13307213198556633,
      "weights": [
        0.0323885076627939,
        -1.0106582164460936e-12,
        0.006376719727337717,
        -0.04878234141594137,
        -0.012631251817572353,
        -0.05419146768822643,
        -0.02091364118683422,
        -0.0009513344869874942,
        -0.0037105501739575653,
        -0.005009990110022149,
        -0.04897792837643709,
        3.896054418171197e-14,
        -0.04878234141593653,
        -0.04897792837637187,
        0.003723643125633577,
        -0.00583698994840574,
        0.03094368174833143,
        -0.04897792837638472,
        -0.006721287458629508,
        0.0,
        3.470959625584968e-14,
        -1.995088125887519e-15,
        -0.00016158973494192325,
        0.0,
        0.0,
        0.0,
        0.0,
        -0.03209759433581613,
        -0.013533696247038741,
        0.005271973137978595,
        -0.009165010406950997,
        -0.030287666457874843,
        3.153503110241848e-15,
        -0.24133315829488536,
        -0.1786646458501572,
        0.030918827122422294,
        0.02396913391771384,
        -0.0071650228842646746,
        0.0,
        0.10952964417851839,
        0.0,
        0.0,
        -1.9152885850939276e-15,
        0.0,
        0.0,
        0.0,
        -5.984897715594986e-15,
        -7.33192204280856e-15,
        -7.040422895106886e-14,
        -3.8651865395139964e-14,
        -0.1344719322019301,
        1.7201742315452175e-15,
        0.0615698134658873,
        0.02088029196241719,
        -0.02072643095365459
      ],
      "clip": 8.0,
      "temperature": 3.0
    },
    "ordering": {
      "type": "ridge",
      "bias": -2.2640833333333332,
      "weights": [
        -0.016137785068603975,
        -0.014501921605898816,
        -0.00724029799916199,
        -4.656264766035651e-05,
        0.008008320141802798,
        -0.009027018952620761,
        0.0009489571573343189,
        -0.03186667499168173,
        0.16344492016662052,
        0.01537294225552431,
        -0.0029962315172650596,
        -0.004031953586073852,
        -4.6562647521189356e-05,
        -0.0029962315172684557,
        0.021256107821122378,
        -0.02286619556461744,
        0.002178352826112905,
        -0.0029962315171092172,
        -0.051480458134042874,
        0.0,
        -0.5193138303393104,
        -0.00021735145666899132,
        -0.007021054681000644,
        0.0,
        0.0,
        0.0,
        0.0,
        -0.01642980169701942,
        0.058589626756444725,
        0.013011611580603079,
        0.0023934647396596648,
        0.002462232083161719,
        -0.0010177146668248274,
        -2.675825652422288,
        0.14278597449237565,
        -0.058318513751745966,
        -0.0032556085508817696,
        0.06887534616983053,
        0.0,
        -0.022616865939221516,
        0.0,
        0.0,
        -0.0002173514566659413,
        0.0,
        0.0,
        0.0,
        -0.0029505245860119455,
        0.00026702594538349474,
        -0.0006075724274522355,
        -0.0036988914559805855,
        0.0013399925638873562,
        -0.0015749676619329167,
        -0.0019993405227465336,
        -0.008229548643777285,
        -0.016390065053629138
      ],
      "clip": 12.0
    }
  },
  "calibration": {
    "pickup_temp": 3.0,
    "dropoff_temp": 3.0
  },
  "weights": {
    "bias": 3.250378801463197,
    "dist_to_nearest_active_item": 0.05405198063515848,
    "dist_to_dropoff": -0.02565638885910746,
    "inventory_util": 0.47621741674086576,
    "local_congestion": -0.08355876466971522,
    "teammate_proximity": 0.06978945943317212,
    "order_urgency": -0.2135809791811684,
    "blocked_ticks": -0.005565056692285229,
    "queue_distance": -0.01334467544222383,
    "queue_slot_index": 0.04444687876572231,
    "is_queue_violation": 0.32668972182067124,
    "near_dropoff_blocking": 1.1509487501283686,
    "repeated_failed_move_count": -0.8067030993684987,
    "conflict_degree": -0.0835587647254937,
    "yield_applied": 1.1509487501409015,
    "queue_role_lead": -2.678909031818603,
    "queue_role_courier": -1.2345587754053682,
    "queue_role_collector": 2.762519057041795,
    "queue_role_yield": 1.1509487501329505,
    "queue_advance": 0.2880113868964424,
    "move_target_blocked": 0.0,
    "noop_move": -1.602530290942306,
    "intent_move_but_wait": -0.3265417893362291,
    "queue_relaxation_active": -4.067425743655168,
    "in_corner": 0.0,
    "dead_end_depth": 0.0,
    "escape_macro_active": 0.0,
    "escape_macro_ticks_remaining": 0.0,
    "queue_eta_rank": -0.00045270076162704203,
    "local_conflict_count": -0.8772588398201165,
    "cbs_timeout": -0.7173355831679099,
    "cbs_expanded_nodes": -0.952628363841958,
    "dropoff_attempt_same_order_streak": -3.662239999926138,
    "dropoff_watchdog_triggered": 0.27934849925431915,
    "loop_two_cycle_count": -1.012418422099493,
    "coverage_gain": 1.4058989993385476,
    "serviceable_dropoff": -7.042416187344612,
    "ordering_rank": 0.20679371493270074,
    "ordering_score": 0.10812074440837546,
    "dropoff_target_pending": 0.0,
    "dropoff_target_in_progress": 2.1526360393242863,
    "wait_reason_blocked_by_vertex_reservation": 0.0,
    "wait_reason_blocked_by_edge_reservation": 0.0,
    "wait_reason_forbidden_queue_zone": -0.32654178933624467,
    "wait_reason_prohibited_repeat_move": 0.0,
    "wait_reason_no_path_with_constraints": 0.0,
    "wait_reason_timeout_fallback": 0.0,
    "stand_failure_count_recent": -0.04500648094376438,
    "stand_success_count_recent": 0.20188766778101966,
    "stand_cooldown_ticks_remaining": 0.015723440431429873,
    "kind_failure_count_recent": -0.09183264868546134,
    "repeated_same_stand_no_delta_streak": 0.007003248775769428,
    "contention_at_stand_proxy": -1.323622159867872,
    "time_since_last_conversion_tick": -0.005765180172205821,
    "last_conversion_was_pickup": 0.6250649846532634,
    "last_conversion_was_dropoff": -0.43938580726611975
  },
  "ordering_weights": {
    "bias": -3.0860583906852312,
    "carrying_active": -1.5450040911660603,
    "queue_role_lead": 2.1171021736825844,
    "queue_role_courier": 2.9747260555728694,
    "blocked_ticks": 0.017403027389276102,
    "local_conflict_count": 1.3608164212762242,
    "dist_to_goal_proxy": -0.01391393344443281,
    "dropoff_watchdog_pressure": -0.4646341705027756,
    "choke_occupancy_proxy": 1.237512184170752
  },
  "metrics": {
    "rows_train": 6000,
    "rows_validation": 3000,
    "mae": 1.9557711465038965,
    "rmse": 3.911158633512997,
    "r2": 0.9624476416332601
  },
  "dedup": {
    "strategy": "downweight",
    "signature_kind": "action",
    "runs_total": 6,
    "runs_kept": 6,
    "signature_clusters": 6,
    "duplicated_clusters": 0,
    "duplicate_runs": 0,
    "max_cluster_size": 1,
    "top_cluster_sizes": [
      1,
      1,
      1,
      1,
      1
    ],
    "effective_run_weight_sum": 6.0,
    "signature_columns": [
      "tick",
      "bot_id",
      "action_kind",
      "action_dx",
      "action_dy",
      "action_item_kind",
      "action_order_id",
      "goal_cell_x",
      "goal_cell_y"
    ]
  },
  "metrics_v2": {
    "pickup": {
      "rows_train": 471,
      "rows_validation": 84,
      "logloss": 0.7106313101120074,
      "auc": 0.7271255060728745
    },
    "dropoff": {
      "rows_train": 310,
      "rows_validation": 29,
      "logloss": 0.7040663243466267,
      "auc": 0.8131313131313131
    },
    "ordering": {
      "mae": 0.4255097977721996,
      "rmse": 0.5483034138961267,
      "r2": 0.9740556700069417
    }
  }
}