{
  "schema_version": "1.2.0",
  "mode": "hard",
  "feature_columns": [
    "dist_to_nearest_active_item",
    "dist_to_dropoff",
    "inventory_util",
    "local_congestion",
    "teammate_proximity",
    "order_urgency",
    "blocked_ticks",
    "queue_distance",
    "queue_slot_index",
    "is_queue_violation",
    "near_dropoff_blocking",
    "repeated_failed_move_count",
    "conflict_degree",
    "yield_applied",
    "queue_role_lead",
    "queue_role_courier",
    "queue_role_collector",
    "queue_role_yield",
    "queue_advance",
    "move_target_blocked",
    "noop_move",
    "intent_move_but_wait",
    "queue_relaxation_active",
    "in_corner",
    "dead_end_depth",
    "escape_macro_active",
    "escape_macro_ticks_remaining",
    "queue_eta_rank",
    "local_conflict_count",
    "cbs_timeout",
    "cbs_expanded_nodes",
    "dropoff_attempt_same_order_streak",
    "dropoff_watchdog_triggered",
    "loop_two_cycle_count",
    "coverage_gain",
    "serviceable_dropoff",
    "ordering_rank",
    "ordering_score",
    "dropoff_target_pending",
    "dropoff_target_in_progress",
    "wait_reason_blocked_by_vertex_reservation",
    "wait_reason_blocked_by_edge_reservation",
    "wait_reason_forbidden_queue_zone",
    "wait_reason_prohibited_repeat_move",
    "wait_reason_no_path_with_constraints",
    "wait_reason_timeout_fallback",
    "stand_failure_count_recent",
    "stand_success_count_recent",
    "stand_cooldown_ticks_remaining",
    "kind_failure_count_recent",
    "repeated_same_stand_no_delta_streak",
    "contention_at_stand_proxy",
    "time_since_last_conversion_tick",
    "last_conversion_was_pickup",
    "last_conversion_was_dropoff"
  ],
  "normalization": {
    "mean": [
      3.5734666666666666,
      9.603466666666666,
      0.39253333333333335,
      0.34373333333333334,
      8.445466666666666,
      2.0913333333333335,
      23.169066666666666,
      21.275866666666666,
      -0.8590666666666666,
      0.05706666666666667,
      0.07386666666666666,
      0.11,
      0.11093333333333333,
      0.07386666666666666,
      0.11146666666666667,
      0.0992,
      0.5154666666666666,
      0.07386666666666666,
      0.18786666666666665,
      0.04053333333333333,
      0.15533333333333332,
      0.0006666666666666666,
      0.0336,
      0.0,
      0.0,
      0.0,
      0.0,
      5894.024266666666,
      0.0021333333333333334,
      0.059333333333333335,
      0.004666666666666667,
      0.014533333333333334,
      0.00013333333333333334,
      8.854133333333333,
      0.31466666666666665,
      0.1904,
      0.8,
      13.909366666666667,
      0.0,
      0.011733333333333333,
      0.0,
      0.0,
      0.0006666666666666666,
      0.0,
      0.0,
      0.0,
      1.4609333333333334,
      0.0796,
      1.4838666666666667,
      0.6293333333333333,
      2.1933333333333334,
      0.0008,
      79.14293333333333,
      0.3910666666666667,
      0.44693333333333335
    ],
    "std": [
      2.573933950633198,
      6.12042166158146,
      0.35862777153828806,
      0.6529783525423251,
      3.684256069035135,
      1.0114304501820952,
      56.30233579934515,
      39.03006060609637,
      0.4690463327030947,
      0.23196995974095913,
      0.2615537845687235,
      0.31288975694324034,
      0.425159337451528,
      0.2615537845687235,
      0.3147091496745668,
      0.2989303597830103,
      0.49976072496968205,
      0.2615537845687235,
      0.5205504607837959,
      0.1972064456913673,
      0.36222215405589,
      0.025811280910141253,
      0.1801972252838539,
      1.0,
      1.0,
      1.0,
      1.0,
      4898.709658070969,
      0.046138728008281955,
      0.23624751615390346,
      0.068153421696118,
      0.14114572453870347,
      0.011546235557771874,
      12.76730418878194,
      0.4643829837058584,
      0.39261665782286925,
      1.8330302779823362,
      30.640312943335868,
      1.0,
      0.10768315663195528,
      1.0,
      1.0,
      0.025811280910141253,
      1.0,
      1.0,
      1.0,
      3.953556263528937,
      0.37762040905297123,
      3.615393899547999,
      3.1621837742645855,
      5.706086419098663,
      0.028272955275315665,
      77.61534107418599,
      0.4879892712846143,
      0.4971759536511081
    ]
  },
  "heads": {
    "pickup": {
      "type": "ridge_logit",
      "bias": 0.6230991264148645,
      "weights": [
        0.0562563827591991,
        -0.07280512171621396,
        -0.0105246895536605,
        -0.0961282920862098,
        -0.10401856402588482,
        0.006678696907929035,
        0.20769797173576496,
        -0.042569122917285505,
        3.2497571075921854e-13,
        1.6202484261597594e-13,
        1.5188797293420996e-13,
        -0.11515321870698492,
        0.06755332932792828,
        1.5077549388905746e-13,
        2.1249311459311028e-13,
        1.355952338652552e-13,
        0.0335812308534217,
        1.5485831421248797e-13,
        2.1011559458117273e-13,
        1.3104086019285712e-13,
        1.2876208950398886e-13,
        1.8344542635185222e-14,
        9.251176585520756e-14,
        0.0,
        0.0,
        0.0,
        0.0,
        0.12846144762850442,
        5.256896441044198e-15,
        0.016393705697833404,
        8.185506758531716e-15,
        8.037566928863432e-14,
        2.9968817622237764e-15,
        -0.07303921907114944,
        0.10214214095881685,
        -0.11799977567130147,
        0.03959061002196626,
        0.46361772101880205,
        0.0,
        -6.105380136252316e-14,
        0.0,
        0.0,
        1.8883692105232226e-14,
        0.0,
        0.0,
        0.0,
        -0.05824854189375499,
        0.04023473375180593,
        -0.005248080848426531,
        -0.02672838121311656,
        0.0374760953017612,
        -9.295154946891705e-15,
        -0.033493236727268005,
        -0.14086102755963711,
        -0.2193116685022903
      ],
      "clip": 8.0,
      "temperature": 3.0
    },
    "dropoff": {
      "type": "ridge_logit",
      "bias": 0.020850128863496697,
      "weights": [
        0.03087213433780358,
        2.906794305548122e-13,
        0.005605040529496003,
        -0.03998242774254776,
        -0.012348562813111731,
        -0.04905642267574664,
        -0.05046485866480512,
        -0.07049945781543027,
        -0.0010019937591050898,
        0.03238233550635147,
        -0.043774409350412796,
        1.6594799296102865e-14,
        -0.06140676564820511,
        -0.04377440935040345,
        0.06441724588137662,
        -0.0015722106596683203,
        0.03888075237646574,
        -0.04377440935040096,
        -0.0018057096614685483,
        -1.874136346406102e-14,
        1.2175845880138793e-13,
        5.853544081936294e-16,
        0.00023304570779468964,
        0.0,
        0.0,
        0.0,
        0.0,
        -0.02392353275210085,
        -0.012154361344746975,
        0.005292629074417582,
        -0.008228299595863214,
        -0.0266709454239011,
        1.0676159688793684e-15,
        -0.22999932326484587,
        -0.17084476273260119,
        0.027947818878034898,
        0.02718718061035192,
        -0.017688887810705323,
        0.0,
        0.10189875171149938,
        0.0,
        0.0,
        9.990704456696958e-16,
        0.0,
        0.0,
        0.0,
        7.589639723841683e-14,
        5.297345837489541e-14,
        1.534248735459603e-14,
        2.081134754842807e-14,
        -0.14182695165376327,
        2.783497191378301e-15,
        0.07206430562055224,
        0.02001701066545691,
        -0.019647141773684252
      ],
      "clip": 8.0,
      "temperature": 0.9
    },
    "ordering": {
      "type": "ridge",
      "bias": -1.8792666666666684,
      "weights": [
        -0.009445293179014234,
        -0.008079337801030474,
        -0.006580737321771309,
        0.0006567730360803681,
        0.003490046268307024,
        -0.005086421326386407,
        -0.001914055298050489,
        -0.2561329785441569,
        0.14675984573460923,
        0.013849464328056256,
        -0.05099405270458041,
        -0.0040959946725781,
        -0.0020275748885962945,
        -0.050994052704588795,
        -0.17138015204760376,
        -0.1995631525514192,
        -0.27654122664784336,
        -0.050994052704926976,
        -0.04695729477970944,
        0.0035358136555061104,
        -0.5460700680456525,
        -0.00020022762123937432,
        -0.005506120020674785,
        0.0,
        0.0,
        0.0,
        0.0,
        -0.03865054662867406,
        0.05247195645375622,
        0.011433730756435815,
        0.002162756425942755,
        0.0009168596216743785,
        -0.0013636258572886392,
        -2.551647528003708,
        0.13619562341505007,
        -0.08468035140492035,
        -0.0020342208260202147,
        0.09352468674586607,
        0.0,
        -0.019922474082912037,
        0.0,
        0.0,
        -0.0002002276212337699,
        0.0,
        0.0,
        0.0,
        -0.0006397281439594928,
        0.00017540295996913653,
        -0.0008129828770803222,
        -0.0027690977040437845,
        -0.0008498725025062482,
        -0.0014609638144006236,
        0.00034691944140288387,
        0.0025007338901998927,
        -0.00342923471509713
      ],
      "clip": 12.0
    }
  },
  "calibration": {
    "pickup_temp": 3.0,
    "dropoff_temp": 0.9
  },
  "weights": {
    "bias": 3.051940775404844,
    "dist_to_nearest_active_item": 0.05725379954587492,
    "dist_to_dropoff": -0.021919078801154616,
    "inventory_util": 0.41995617004722274,
    "local_congestion": 0.21456130945922652,
    "teammate_proximity": 0.06285800956909215,
    "order_urgency": -0.21780553649003057,
    "blocked_ticks": 0.00014418751295940642,
    "queue_distance": -0.02105173000830728,
    "queue_slot_index": 0.053444528224108584,
    "is_queue_violation": 0.29695221909355446,
    "near_dropoff_blocking": 1.3631703597114648,
    "repeated_failed_move_count": -0.7858784968938414,
    "conflict_degree": -0.4684004442724743,
    "yield_applied": 1.3631703597287552,
    "queue_role_lead": -1.9990218996579943,
    "queue_role_courier": -0.5539167356163924,
    "queue_role_collector": 3.3501351233018477,
    "queue_role_yield": 1.3631703597145677,
    "queue_advance": 0.292033669690602,
    "move_target_blocked": -2.7837571775218657,
    "noop_move": -1.5850804018879663,
    "intent_move_but_wait": -0.3191581229826488,
    "queue_relaxation_active": -4.499479636941484,
    "in_corner": 0.0,
    "dead_end_depth": 0.0,
    "escape_macro_active": 0.0,
    "escape_macro_ticks_remaining": 0.0,
    "queue_eta_rank": -0.00045914762919311864,
    "local_conflict_count": -0.8400611442481211,
    "cbs_timeout": -0.7337728849489158,
    "cbs_expanded_nodes": -0.9410909107127792,
    "dropoff_attempt_same_order_streak": -3.6643333932257365,
    "dropoff_watchdog_triggered": 0.35046615846733,
    "loop_two_cycle_count": -1.0109120855115745,
    "coverage_gain": 1.4027275319524581,
    "serviceable_dropoff": -7.139101889465755,
    "ordering_rank": 0.2162611045103205,
    "ordering_score": 0.10940087991945256,
    "dropoff_target_pending": 0.0,
    "dropoff_target_in_progress": 2.1110399468323178,
    "wait_reason_blocked_by_vertex_reservation": 0.0,
    "wait_reason_blocked_by_edge_reservation": 0.0,
    "wait_reason_forbidden_queue_zone": -0.3191581229826427,
    "wait_reason_prohibited_repeat_move": 0.0,
    "wait_reason_no_path_with_constraints": 0.0,
    "wait_reason_timeout_fallback": 0.0,
    "stand_failure_count_recent": -0.03750138964221571,
    "stand_success_count_recent": 0.19308814128522794,
    "stand_cooldown_ticks_remaining": 0.01433176772481646,
    "kind_failure_count_recent": -0.08990052997227639,
    "repeated_same_stand_no_delta_streak": 0.0021511242555297895,
    "contention_at_stand_proxy": -1.2762193153272108,
    "time_since_last_conversion_tick": -0.005600124471893196,
    "last_conversion_was_pickup": 0.25105968350843644,
    "last_conversion_was_dropoff": -0.7647839518941235
  },
  "ordering_weights": {
    "bias": -2.912716605693965,
    "carrying_active": -1.5809247361382397,
    "queue_role_lead": 1.9082291546463892,
    "queue_role_courier": 2.721033883452671,
    "blocked_ticks": 0.003233590661337656,
    "local_conflict_count": 1.3991099911873675,
    "dist_to_goal_proxy": 0.010949590496990222,
    "dropoff_watchdog_pressure": -0.3087663843951678,
    "choke_occupancy_proxy": 0.994164452458335
  },
  "metrics": {
    "rows_train": 7500,
    "rows_validation": 3000,
    "mae": 3.410392596355956,
    "rmse": 8.31457979964137,
    "r2": 0.9577517926275482
  },
  "dedup": {
    "strategy": "downweight",
    "signature_kind": "action",
    "runs_total": 7,
    "runs_kept": 7,
    "signature_clusters": 7,
    "duplicated_clusters": 0,
    "duplicate_runs": 0,
    "max_cluster_size": 1,
    "top_cluster_sizes": [
      1,
      1,
      1,
      1,
      1
    ],
    "effective_run_weight_sum": 7.0,
    "signature_columns": [
      "tick",
      "bot_id",
      "action_kind",
      "action_dx",
      "action_dy",
      "action_item_kind",
      "action_order_id",
      "goal_cell_x",
      "goal_cell_y"
    ]
  },
  "metrics_v2": {
    "pickup": {
      "rows_train": 478,
      "rows_validation": 170,
      "logloss": 0.7004387039665334,
      "auc": 0.8698412698412699
    },
    "dropoff": {
      "rows_train": 316,
      "rows_validation": 105,
      "logloss": 0.2869296355955777,
      "auc": 0.9625668449197861
    },
    "ordering": {
      "mae": 0.2580337732692379,
      "rmse": 0.5451419974936025,
      "r2": 0.994143232555485
    }
  }
}