{
  "schema_version": "1.2.0",
  "mode": "medium",
  "feature_columns": [
    "dist_to_nearest_active_item",
    "dist_to_dropoff",
    "inventory_util",
    "local_congestion",
    "teammate_proximity",
    "order_urgency",
    "blocked_ticks",
    "queue_distance",
    "queue_slot_index",
    "is_queue_violation",
    "near_dropoff_blocking",
    "repeated_failed_move_count",
    "conflict_degree",
    "yield_applied",
    "queue_role_lead",
    "queue_role_courier",
    "queue_role_collector",
    "queue_role_yield",
    "queue_advance",
    "move_target_blocked",
    "noop_move",
    "intent_move_but_wait",
    "queue_relaxation_active",
    "in_corner",
    "dead_end_depth",
    "escape_macro_active",
    "escape_macro_ticks_remaining",
    "queue_eta_rank",
    "local_conflict_count",
    "cbs_timeout",
    "cbs_expanded_nodes",
    "dropoff_attempt_same_order_streak",
    "dropoff_watchdog_triggered",
    "loop_two_cycle_count",
    "coverage_gain",
    "serviceable_dropoff",
    "ordering_rank",
    "ordering_score",
    "dropoff_target_pending",
    "dropoff_target_in_progress",
    "wait_reason_blocked_by_vertex_reservation",
    "wait_reason_blocked_by_edge_reservation",
    "wait_reason_forbidden_queue_zone",
    "wait_reason_prohibited_repeat_move",
    "wait_reason_no_path_with_constraints",
    "wait_reason_timeout_fallback",
    "stand_failure_count_recent",
    "stand_success_count_recent",
    "stand_cooldown_ticks_remaining",
    "kind_failure_count_recent",
    "repeated_same_stand_no_delta_streak",
    "contention_at_stand_proxy",
    "time_since_last_conversion_tick",
    "last_conversion_was_pickup",
    "last_conversion_was_dropoff"
  ],
  "normalization": {
    "mean": [
      3.6442063492063492,
      6.143174603174603,
      0.3468253968253968,
      0.2450793650793651,
      4.588730158730159,
      2.098095238095238,
      9.67,
      8.928095238095239,
      -0.8376190476190476,
      0.105,
      0.15761904761904763,
      0.07269841269841269,
      0.19015873015873017,
      0.15761904761904763,
      0.24658730158730158,
      0.13746031746031745,
      0.3869047619047619,
      0.15761904761904763,
      0.3192063492063492,
      0.00015873015873015873,
      0.09706349206349206,
      0.008095238095238095,
      0.05063492063492064,
      0.004365079365079365,
      0.024365079365079364,
      0.00873015873015873,
      0.024444444444444446,
      5451.927380952381,
      0.0074603174603174605,
      0.013333333333333334,
      0.008333333333333333,
      0.10246031746031746,
      0.0007936507936507937,
      10.985,
      0.42904761904761907,
      0.35698412698412696,
      0.7142857142857143,
      28.69232142857143,
      0.0,
      0.027142857142857142,
      0.0,
      0.00015873015873015873,
      0.007936507936507936,
      0.0,
      0.0,
      0.0,
      0.08992063492063491,
      0.20976190476190476,
      0.18642857142857142,
      0.031507936507936506,
      0.09325396825396826,
      0.12968253968253968,
      45.85515873015873,
      0.5561904761904762,
      0.36277777777777775
    ],
    "std": [
      2.3809424748471173,
      5.167662830356087,
      0.3405483329053243,
      0.4864183091526901,
      2.5975079583809473,
      0.9461179783858582,
      38.61070648868725,
      25.192756666061264,
      0.431108627292562,
      0.3065534211193866,
      0.3643834291604271,
      0.25964081630118163,
      0.44225070841147446,
      0.3643834291604271,
      0.431024366229097,
      0.3443326568654594,
      0.48704154557920565,
      0.3643834291604271,
      0.6611769246381587,
      0.012597815821279031,
      0.2960442037465562,
      0.0896086224390237,
      0.2192510557493759,
      0.06592439189871926,
      0.20921620939261074,
      0.09302657178841411,
      0.28008942890337996,
      4971.788323851569,
      0.09648535136729641,
      0.11469767022723504,
      0.09845029363826356,
      0.4655363633145677,
      0.028160626982873287,
      14.594710296912154,
      0.49494015763240323,
      0.47911007092891267,
      1.0301575072754254,
      38.68947246129355,
      1.0,
      0.1624996075348479,
      1.0,
      0.012597815821279031,
      0.08873285624999165,
      1.0,
      1.0,
      1.0,
      0.9052369645320237,
      0.7987390501877222,
      1.404445303305659,
      0.5308342751883958,
      0.9015606656863555,
      0.48008751931608656,
      68.62212879741557,
      0.4968325979497395,
      0.48080147850063343
    ]
  },
  "heads": {
    "pickup": {
      "type": "ridge_logit",
      "bias": 1.0734616242405162,
      "weights": [
        0.00010999983338940195,
        0.02046150817151171,
        0.08554583172198518,
        0.08622861865872555,
        -0.07148830824331263,
        0.08154162443166675,
        0.09828687285110216,
        -0.04877038570341156,
        4.3287052114830446e-13,
        -3.813261485366217e-13,
        -9.245909987083995e-14,
        4.094626973917639e-13,
        -0.10258434567147581,
        -9.27988820426986e-14,
        -6.770171745144135e-13,
        1.1792140459142208e-12,
        0.02548183379356265,
        -9.037059052782513e-14,
        1.53686459869081e-12,
        -1.1747703276278963e-14,
        9.360938324513057e-14,
        -1.488661727362154e-13,
        0.11966653279980588,
        3.608899186716442e-14,
        -2.2120075941489063e-13,
        1.249538240891021e-13,
        -3.4408408591865415e-13,
        0.024712646222908887,
        -1.1838279848099602e-13,
        -6.761314627269493e-14,
        -1.5826035232369057e-13,
        8.644776253457741e-13,
        6.765529429247286e-14,
        -0.15235649974597354,
        0.012246359190618542,
        -1.3765112052655178e-12,
        -0.009883938752757367,
        0.20109190598596238,
        0.0,
        -1.3732866293151175e-13,
        0.0,
        -1.1736885706071988e-14,
        -2.7863128536607125e-13,
        0.0,
        0.0,
        0.0,
        -0.061215003690408595,
        0.011487035412694763,
        -0.005704138663333343,
        -0.002661771198959831,
        0.03527884830527331,
        -5.565842315718481e-13,
        -0.03969942014416101,
        -0.008575982596783823,
        -0.025111399426629166
      ],
      "clip": 8.0,
      "temperature": 0.6
    },
    "dropoff": {
      "type": "ridge_logit",
      "bias": 0.5307105831996073,
      "weights": [
        -0.008959448111473037,
        -2.9617646969079706e-12,
        -0.04153350482677508,
        0.0026169618255342175,
        -0.05113869526810642,
        0.044129695055527995,
        0.10809703219322683,
        -0.013744988754246996,
        0.034285237898230674,
        -0.03496789402375713,
        -0.0699817482046495,
        -5.953615807524896e-13,
        0.0028783179371293603,
        -0.06998174820463339,
        0.03367755205429332,
        0.04292553015863531,
        -2.6183340322159894e-12,
        -0.0699817482046461,
        0.04471015637731789,
        -6.016526148217395e-15,
        7.651295620431812e-14,
        -1.156556561120365e-13,
        -0.010964147424928199,
        3.815869020070806e-14,
        -1.7946763670274813e-13,
        -1.5091496748250732e-13,
        -1.5725109810779003e-13,
        -0.05135726460770685,
        -0.0040435915552428205,
        -1.7338056759234096e-14,
        0.008194017183183615,
        0.031150785277272518,
        -5.524750863008812e-14,
        -0.19622891471228907,
        0.02583398395833724,
        -0.02545849831656229,
        -0.15092163459183794,
        0.24868548852070188,
        0.0,
        -0.07506124549617799,
        0.0,
        -6.029963471798004e-15,
        -1.4074798061641547e-13,
        0.0,
        0.0,
        0.0,
        -1.6990906061789056e-13,
        -2.301218419880823e-14,
        -2.362129289674337e-13,
        -5.929845270384724e-14,
        -0.044962513398530024,
        -4.588662212805592e-13,
        -0.19306925763456206,
        0.05132551586732839,
        -0.05303683646803858
      ],
      "clip": 8.0,
      "temperature": 1.0
    },
    "ordering": {
      "type": "ridge",
      "bias": -2.1631393573816613,
      "weights": [
        -0.007165215594751361,
        -0.0012760342610868567,
        -0.010348413981317788,
        0.003782566058217065,
        0.007264301264827894,
        -0.000569909202599222,
        -0.0010664655072315117,
        -0.04782466073988607,
        0.1406939608469977,
        0.006756104773510885,
        -0.010851191668267207,
        -0.007183130941482484,
        -0.0099473672146815,
        -0.010851191668267602,
        -0.041313689786227584,
        -0.059844094374308696,
        -0.039284051435720745,
        -0.01085119166953638,
        -0.07002580455199947,
        0.00022222906518007255,
        -0.4491640980750993,
        -0.0012055625487977593,
        0.001240353287030297,
        -0.00013288514825380773,
        0.0009890589667546812,
        0.0026896262191327684,
        -0.0011997135215531347,
        -0.04519446437377662,
        0.11274127958922871,
        -0.0022207488370211753,
        0.00017315231218480685,
        -0.012389063875231796,
        0.0011588260920930645,
        -2.9227565013212953,
        0.1390055823936976,
        -0.05110695973687089,
        0.0036712922094721953,
        0.06763547285752598,
        0.0,
        -0.014860660422521705,
        0.0,
        0.00038170427822985687,
        -0.0012716534018909994,
        0.0,
        0.0,
        0.0,
        0.0028715610194193337,
        -0.0007954402795689099,
        -0.0016732638063382778,
        -0.0011196693380929016,
        -0.0033722940034965477,
        -0.001439406603624165,
        0.002644659737583594,
        -0.00030114739796218223,
        -0.004928764694178486
      ],
      "clip": 12.0
    }
  },
  "calibration": {
    "pickup_temp": 0.6,
    "dropoff_temp": 1.0
  },
  "weights": {
    "bias": 1.2796052554341573,
    "dist_to_nearest_active_item": 0.014026490380582991,
    "dist_to_dropoff": -0.05443976132143667,
    "inventory_util": -0.03041237209032001,
    "local_congestion": -1.0603776376356961,
    "teammate_proximity": 0.14703688102473758,
    "order_urgency": -0.11325687755100147,
    "blocked_ticks": 0.004295853542247098,
    "queue_distance": 0.0050167076575366645,
    "queue_slot_index": 0.566296293717602,
    "is_queue_violation": -1.067452749977151,
    "near_dropoff_blocking": 0.052223323684454086,
    "repeated_failed_move_count": -0.63657405998901,
    "conflict_degree": 0.5373320770237905,
    "yield_applied": 0.0522233236862489,
    "queue_role_lead": 0.36387004756882035,
    "queue_role_courier": 0.7997249985129012,
    "queue_role_collector": -0.040644567654171314,
    "queue_role_yield": 0.052223323671553905,
    "queue_advance": 0.41602468006024973,
    "move_target_blocked": 0.30103486212267777,
    "noop_move": -1.6983616893736022,
    "intent_move_but_wait": -1.695954045462156,
    "queue_relaxation_active": -1.102667685537949,
    "in_corner": -1.0312553255414494,
    "dead_end_depth": -0.9804756734969752,
    "escape_macro_active": 3.0702199886899013,
    "escape_macro_ticks_remaining": -0.324108441370246,
    "queue_eta_rank": 7.36271430728718e-05,
    "local_conflict_count": 0.4504865132743508,
    "cbs_timeout": -1.4142451628368689,
    "cbs_expanded_nodes": -0.5023480847213915,
    "dropoff_attempt_same_order_streak": -2.346952382111461,
    "dropoff_watchdog_triggered": 2.5506726951059466,
    "loop_two_cycle_count": -0.9877147018031891,
    "coverage_gain": 1.3723418664627907,
    "serviceable_dropoff": -4.351431192484828,
    "ordering_rank": 0.25549255439169644,
    "ordering_score": 0.06374000091525861,
    "dropoff_target_pending": 0.0,
    "dropoff_target_in_progress": 2.033721922412929,
    "wait_reason_blocked_by_vertex_reservation": 0.0,
    "wait_reason_blocked_by_edge_reservation": -1.725603675489404,
    "wait_reason_forbidden_queue_zone": 0.029649630030441895,
    "wait_reason_prohibited_repeat_move": 0.0,
    "wait_reason_no_path_with_constraints": 0.0,
    "wait_reason_timeout_fallback": 0.0,
    "stand_failure_count_recent": -0.0633643487979002,
    "stand_success_count_recent": 0.2969091093187068,
    "stand_cooldown_ticks_remaining": -0.1421797978166652,
    "kind_failure_count_recent": -0.13521751193210066,
    "repeated_same_stand_no_delta_streak": 0.035212400906839726,
    "contention_at_stand_proxy": -0.9544865058224097,
    "time_since_last_conversion_tick": -0.010139498804602074,
    "last_conversion_was_pickup": 0.37924824657422573,
    "last_conversion_was_dropoff": -0.4628425524937756
  },
  "ordering_weights": {
    "bias": -2.5815906464605476,
    "carrying_active": -2.4995483213744336,
    "queue_role_lead": 2.5989730542604157,
    "queue_role_courier": 3.0076914106935755,
    "blocked_ticks": 0.005907936437643111,
    "local_conflict_count": 0.3446612169717148,
    "dist_to_goal_proxy": 0.017525478003831304,
    "dropoff_watchdog_pressure": -1.3707623269527014,
    "choke_occupancy_proxy": -0.436799887909653
  },
  "metrics": {
    "rows_train": 12600,
    "rows_validation": 1800,
    "mae": 1.6927541552242251,
    "rmse": 4.282396193237928,
    "r2": 0.974558348503723
  },
  "dedup": {
    "strategy": "downweight",
    "signature_kind": "action",
    "runs_total": 16,
    "runs_kept": 16,
    "signature_clusters": 10,
    "duplicated_clusters": 1,
    "duplicate_runs": 6,
    "max_cluster_size": 7,
    "top_cluster_sizes": [
      7,
      1,
      1,
      1,
      1
    ],
    "effective_run_weight_sum": 10.0,
    "signature_columns": [
      "tick",
      "bot_id",
      "action_kind",
      "action_dx",
      "action_dy",
      "action_item_kind",
      "action_order_id",
      "goal_cell_x",
      "goal_cell_y"
    ]
  },
  "metrics_v2": {
    "pickup": {
      "rows_train": 528,
      "rows_validation": 100,
      "logloss": 0.6339878167758826,
      "auc": 0.9813988095238095
    },
    "dropoff": {
      "rows_train": 529,
      "rows_validation": 17,
      "logloss": 0.585494850777722,
      "auc": 0.8333333333333334
    },
    "ordering": {
      "mae": 0.031661659736721706,
      "rmse": 0.09123142171240048,
      "r2": 0.9997166199053107
    }
  }
}