{
  "schema_version": "1.2.0",
  "mode": "medium",
  "feature_columns": [
    "dist_to_nearest_active_item",
    "dist_to_dropoff",
    "inventory_util",
    "local_congestion",
    "teammate_proximity",
    "order_urgency",
    "blocked_ticks",
    "queue_distance",
    "queue_slot_index",
    "is_queue_violation",
    "near_dropoff_blocking",
    "repeated_failed_move_count",
    "conflict_degree",
    "yield_applied",
    "queue_role_lead",
    "queue_role_courier",
    "queue_role_collector",
    "queue_role_yield",
    "queue_advance",
    "move_target_blocked",
    "noop_move",
    "intent_move_but_wait",
    "queue_relaxation_active",
    "in_corner",
    "dead_end_depth",
    "escape_macro_active",
    "escape_macro_ticks_remaining",
    "queue_eta_rank",
    "local_conflict_count",
    "cbs_timeout",
    "cbs_expanded_nodes",
    "dropoff_attempt_same_order_streak",
    "dropoff_watchdog_triggered",
    "loop_two_cycle_count",
    "coverage_gain",
    "serviceable_dropoff",
    "ordering_rank",
    "ordering_score",
    "dropoff_target_pending",
    "dropoff_target_in_progress",
    "wait_reason_blocked_by_vertex_reservation",
    "wait_reason_blocked_by_edge_reservation",
    "wait_reason_forbidden_queue_zone",
    "wait_reason_prohibited_repeat_move",
    "wait_reason_no_path_with_constraints",
    "wait_reason_timeout_fallback",
    "stand_failure_count_recent",
    "stand_success_count_recent",
    "stand_cooldown_ticks_remaining",
    "kind_failure_count_recent",
    "repeated_same_stand_no_delta_streak",
    "contention_at_stand_proxy",
    "time_since_last_conversion_tick",
    "last_conversion_was_pickup",
    "last_conversion_was_dropoff"
  ],
  "normalization": {
    "mean": [
      3.59718954248366,
      6.0419607843137255,
      0.333681917211329,
      0.21869281045751635,
      4.643921568627451,
      2.094313725490196,
      7.9835947712418305,
      7.779673202614379,
      -0.8169281045751634,
      0.1027450980392157,
      0.15281045751633987,
      0.06529411764705882,
      0.1734640522875817,
      0.15281045751633987,
      0.25562091503267975,
      0.15405228758169934,
      0.37869281045751635,
      0.15281045751633987,
      0.34705882352941175,
      0.00013071895424836603,
      0.085359477124183,
      0.007320261437908497,
      0.041437908496732026,
      0.003594771241830065,
      0.020065359477124182,
      0.00718954248366013,
      0.020130718954248367,
      5320.507777777778,
      0.006666666666666667,
      0.01196078431372549,
      0.006862745098039216,
      0.12032679738562091,
      0.00065359477124183,
      10.625751633986928,
      0.4596078431372549,
      0.3873856209150327,
      0.7647058823529411,
      31.00200980392157,
      0.0,
      0.030326797385620916,
      0.0,
      6.535947712418301e-05,
      0.0072549019607843135,
      0.0,
      0.0,
      0.0,
      0.11437908496732026,
      0.19568627450980391,
      0.19156862745098038,
      0.03294117647058824,
      0.10522875816993464,
      0.10810457516339869,
      41.32614379084967,
      0.5480392156862746,
      0.374640522875817
    ],
    "std": [
      2.3747098777091344,
      5.003600410740006,
      0.32071977044531297,
      0.4644382266985554,
      2.5113413948907177,
      0.9296462639553394,
      35.22770641832818,
      23.04203359756912,
      0.4556268124426709,
      0.30362566240047567,
      0.35980469923277375,
      0.24704411720935773,
      0.424235290895389,
      0.35980469923277375,
      0.43620965467368467,
      0.36099886464162845,
      0.4850614041183899,
      0.35980469923277375,
      0.6982292096579251,
      0.011432491714554892,
      0.2794158849980958,
      0.08524479579651278,
      0.19930079838311865,
      0.05984854936879403,
      0.1900876878218894,
      0.08448581515577498,
      0.2543477803521614,
      4983.218941673991,
      0.09050331305097407,
      0.1087093554038751,
      0.08939864884881567,
      0.7262347324849736,
      0.02555714352420543,
      13.683989628301559,
      0.4983658030643509,
      0.4871529550596067,
      1.0017286097603766,
      40.17731847672635,
      1.0,
      0.17148493445767304,
      1.0,
      0.008084256630200024,
      0.08486617911938607,
      1.0,
      1.0,
      1.0,
      1.0669679905676153,
      0.721115480046882,
      1.419691404213877,
      0.5442148296890833,
      0.9863970782781714,
      0.4396370333470316,
      66.00930541574817,
      0.4976868832471351,
      0.48402995929503323
    ]
  },
  "heads": {
    "pickup": {
      "type": "ridge_logit",
      "bias": 1.0972328595618954,
      "weights": [
        0.07512942920986877,
        0.10960456335221766,
        -0.02233758318571677,
        0.1036801962969576,
        -0.07036710166133181,
        0.05380382216007021,
        0.15144199050439827,
        -0.031762815617050244,
        6.002044910698529e-13,
        -5.527434038199303e-13,
        -9.591682754975017e-13,
        -8.32954707211393e-13,
        -0.11444483549428827,
        -9.605146032502496e-13,
        -2.915367409553474e-12,
        -1.4876339814913989e-12,
        0.015240804243952516,
        -9.63670642679044e-13,
        -1.0053699781473511e-12,
        -1.6097775202918134e-14,
        -1.3426038251243513e-12,
        -5.893866739467932e-13,
        0.12269897322542181,
        -6.571204364488621e-14,
        -2.355125349109978e-13,
        4.1476535877261065e-14,
        -4.664564986296078e-13,
        0.014686889605550504,
        1.5206639477767042e-13,
        -3.918611816423124e-13,
        -5.930980020599141e-13,
        1.905304591126565e-13,
        -7.023333292110275e-14,
        -0.0890205543734925,
        0.05295784838990532,
        -2.203674763509609e-12,
        -0.03223845722417665,
        0.2579876887984063,
        0.0,
        -5.280339496767508e-13,
        0.0,
        -2.8631009357583847e-14,
        -4.336876380382168e-13,
        0.0,
        0.0,
        0.0,
        0.002680782972975089,
        0.006301064091309281,
        -0.03920370369644084,
        0.0069079862373280215,
        -0.02786488478834598,
        -1.2323636955511932e-12,
        -0.16833581260301134,
        -0.1125154923526456,
        -0.19020267426041626
      ],
      "clip": 8.0,
      "temperature": 0.5
    },
    "dropoff": {
      "type": "ridge_logit",
      "bias": 0.8941453309022315,
      "weights": [
        0.039390675573131924,
        -2.8736259024711255e-12,
        -0.010893050062712043,
        0.0010260474530426485,
        -0.08067295253791469,
        0.006940611936224237,
        0.05110997470428631,
        -0.0003127082506464602,
        0.03959076181399822,
        -0.027066337775619863,
        -0.07297472045041029,
        -4.753526288352599e-13,
        0.0011232815130168504,
        -0.07297472045037506,
        0.01984191138727973,
        0.049968613129751656,
        -1.6769006760257666e-12,
        -0.07297472045038926,
        0.05166960178111349,
        -1.783204919019772e-14,
        -9.365432420447476e-13,
        -2.382558379579886e-13,
        -0.013127555807374274,
        -2.8380839436009287e-14,
        -1.4594760128245355e-13,
        -9.650120565254725e-14,
        -1.5547361764242736e-13,
        -0.05268993072813381,
        -0.005723264925791195,
        -2.6228581029929203e-13,
        0.010548969173695459,
        -0.09518977822331498,
        -3.0520112389576204e-14,
        -0.16876579171404155,
        -0.0147920834899899,
        -0.03257497804336673,
        0.06409988466919028,
        0.30694562192337155,
        0.0,
        -0.09253872280461292,
        0.0,
        3.124130407705266e-15,
        -6.297142856819949e-14,
        0.0,
        0.0,
        0.0,
        -9.66007183120157e-14,
        -4.713038227574239e-13,
        -4.777658557401076e-13,
        -1.6515672811012396e-13,
        -0.016088288529728847,
        -7.78060008551635e-13,
        -0.09641991628623058,
        0.05275736256543763,
        -0.05424591358274448
      ],
      "clip": 8.0,
      "temperature": 0.6
    },
    "ordering": {
      "type": "ridge",
      "bias": -2.0586666909066356,
      "weights": [
        -0.009206667124935316,
        -0.0035977403261955943,
        -0.01003238868248466,
        0.003670189967283596,
        0.007584370648814617,
        -0.003979151149090524,
        -0.0009525074003240862,
        -0.043631889591651186,
        0.1694814421619307,
        0.0047911580267849,
        -0.010293969673096315,
        -0.00601983229907417,
        -0.00846304697998021,
        -0.010293969673105521,
        -0.04207101310793426,
        -0.07872673869621273,
        -0.03939279969489962,
        -0.010293969672624489,
        -0.07248760960873282,
        0.00019738951576567254,
        -0.4241411991085589,
        -0.0010073261885641957,
        0.0010360672869511947,
        0.00012026787611814878,
        0.001195187544473826,
        0.0022201851783444203,
        -0.0009748210686552189,
        -0.04437465612907778,
        0.1060324737295977,
        0.00011047630828625036,
        -2.401486953076811e-05,
        -0.018042125138550164,
        0.0007508190917584703,
        -2.74166004226942,
        0.13857109943536008,
        -0.05801205418832989,
        0.00497766756246321,
        0.07773886610194669,
        0.0,
        -0.017171178453384433,
        0.0,
        0.000274451933899033,
        -0.0010379641936910818,
        0.0,
        0.0,
        0.0,
        0.002169826595320208,
        -0.000768743517544836,
        -0.0017082477126756552,
        -0.0011326286024019702,
        -0.002509739342940861,
        -0.0022257770612354507,
        0.0024041924592286597,
        0.001212005899571237,
        -0.003099305784376175
      ],
      "clip": 12.0
    }
  },
  "calibration": {
    "pickup_temp": 0.5,
    "dropoff_temp": 0.6
  },
  "weights": {
    "bias": -0.00964917918268403,
    "dist_to_nearest_active_item": 0.09173956885231845,
    "dist_to_dropoff": -0.04350547528032911,
    "inventory_util": 0.07423858388124782,
    "local_congestion": -1.181018051266109,
    "teammate_proximity": 0.08486856399269681,
    "order_urgency": -0.15947672921274597,
    "blocked_ticks": 0.005355678575164747,
    "queue_distance": 0.027246344335643023,
    "queue_slot_index": 0.7873950882788798,
    "is_queue_violation": -1.119733139713853,
    "near_dropoff_blocking": 0.06698833707796464,
    "repeated_failed_move_count": -0.5515995752856506,
    "conflict_degree": 0.49399802663002873,
    "yield_applied": 0.06698833708075398,
    "queue_role_lead": 2.271205364309238,
    "queue_role_courier": 2.871936048185664,
    "queue_role_collector": -0.015636429912865624,
    "queue_role_yield": 0.06698833708094178,
    "queue_advance": 0.4159291321509028,
    "move_target_blocked": 0.2500260792348167,
    "noop_move": -1.586879265643205,
    "intent_move_but_wait": -1.5676672959333504,
    "queue_relaxation_active": -1.269775501635249,
    "in_corner": -1.069099431207805,
    "dead_end_depth": -1.0517558997906045,
    "escape_macro_active": 2.9885221795952814,
    "escape_macro_ticks_remaining": -0.34176649516539304,
    "queue_eta_rank": 0.000275840888867046,
    "local_conflict_count": 0.2966270753300374,
    "cbs_timeout": -1.645743684528952,
    "cbs_expanded_nodes": -0.3532983890731569,
    "dropoff_attempt_same_order_streak": -2.8863141561982477,
    "dropoff_watchdog_triggered": 3.992070678408125,
    "loop_two_cycle_count": -0.9839397684112274,
    "coverage_gain": 1.3643306675934894,
    "serviceable_dropoff": -5.542894585206069,
    "ordering_rank": 0.21536511905457328,
    "ordering_score": 0.07977139448322006,
    "dropoff_target_pending": 0.0,
    "dropoff_target_in_progress": 1.6648415477748957,
    "wait_reason_blocked_by_vertex_reservation": 0.0,
    "wait_reason_blocked_by_edge_reservation": -1.1749120000790767,
    "wait_reason_forbidden_queue_zone": -0.3927552958414102,
    "wait_reason_prohibited_repeat_move": 0.0,
    "wait_reason_no_path_with_constraints": 0.0,
    "wait_reason_timeout_fallback": 0.0,
    "stand_failure_count_recent": 0.07825991318067242,
    "stand_success_count_recent": 0.3596358798414888,
    "stand_cooldown_ticks_remaining": -0.09242973089612862,
    "kind_failure_count_recent": -0.11535660346185034,
    "repeated_same_stand_no_delta_streak": -0.08438342298477733,
    "contention_at_stand_proxy": -0.8718389565742559,
    "time_since_last_conversion_tick": -0.011098425564254994,
    "last_conversion_was_pickup": -0.30574809281577614,
    "last_conversion_was_dropoff": -0.978425572899186
  },
  "ordering_weights": {
    "bias": -2.6445427202723226,
    "carrying_active": -2.493584076959358,
    "queue_role_lead": 2.772223050310546,
    "queue_role_courier": 3.2618442279248927,
    "blocked_ticks": 0.0064655847101181265,
    "local_conflict_count": -0.08096211657218144,
    "dist_to_goal_proxy": 0.018541320203447186,
    "dropoff_watchdog_pressure": -0.5223700787806489,
    "choke_occupancy_proxy": -0.5643106505242425
  },
  "metrics": {
    "rows_train": 15300,
    "rows_validation": 2700,
    "mae": 2.128937646611986,
    "rmse": 4.1564214235572985,
    "r2": 0.967837642670179
  },
  "dedup": {
    "strategy": "downweight",
    "signature_kind": "action",
    "runs_total": 20,
    "runs_kept": 20,
    "signature_clusters": 11,
    "duplicated_clusters": 1,
    "duplicate_runs": 9,
    "max_cluster_size": 10,
    "top_cluster_sizes": [
      10,
      1,
      1,
      1,
      1
    ],
    "effective_run_weight_sum": 11.0,
    "signature_columns": [
      "tick",
      "bot_id",
      "action_kind",
      "action_dx",
      "action_dy",
      "action_item_kind",
      "action_order_id",
      "goal_cell_x",
      "goal_cell_y"
    ]
  },
  "metrics_v2": {
    "pickup": {
      "rows_train": 665,
      "rows_validation": 157,
      "logloss": 0.4055991618964623,
      "auc": 0.966044142614601
    },
    "dropoff": {
      "rows_train": 651,
      "rows_validation": 46,
      "logloss": 0.4835203673181319,
      "auc": 0.6096096096096096
    },
    "ordering": {
      "mae": 0.042059730668696546,
      "rmse": 0.11975381109195056,
      "r2": 0.9993328674064692
    }
  }
}