{
  "schema_version": "1.2.0",
  "mode": "medium",
  "feature_columns": [
    "dist_to_nearest_active_item",
    "dist_to_dropoff",
    "inventory_util",
    "local_congestion",
    "teammate_proximity",
    "order_urgency",
    "blocked_ticks",
    "queue_distance",
    "queue_slot_index",
    "is_queue_violation",
    "near_dropoff_blocking",
    "repeated_failed_move_count",
    "conflict_degree",
    "yield_applied",
    "queue_role_lead",
    "queue_role_courier",
    "queue_role_collector",
    "queue_role_yield",
    "queue_advance",
    "move_target_blocked",
    "noop_move",
    "intent_move_but_wait",
    "queue_relaxation_active",
    "in_corner",
    "dead_end_depth",
    "escape_macro_active",
    "escape_macro_ticks_remaining",
    "queue_eta_rank",
    "local_conflict_count",
    "cbs_timeout",
    "cbs_expanded_nodes",
    "dropoff_attempt_same_order_streak",
    "dropoff_watchdog_triggered",
    "loop_two_cycle_count",
    "coverage_gain",
    "serviceable_dropoff",
    "ordering_rank",
    "ordering_score",
    "dropoff_target_pending",
    "dropoff_target_in_progress",
    "wait_reason_blocked_by_vertex_reservation",
    "wait_reason_blocked_by_edge_reservation",
    "wait_reason_forbidden_queue_zone",
    "wait_reason_prohibited_repeat_move",
    "wait_reason_no_path_with_constraints",
    "wait_reason_timeout_fallback",
    "stand_failure_count_recent",
    "stand_success_count_recent",
    "stand_cooldown_ticks_remaining",
    "kind_failure_count_recent",
    "repeated_same_stand_no_delta_streak",
    "contention_at_stand_proxy",
    "time_since_last_conversion_tick",
    "last_conversion_was_pickup",
    "last_conversion_was_dropoff"
  ],
  "normalization": {
    "mean": [
      3.593958333333333,
      6.064166666666667,
      0.3358564814814814,
      0.22541666666666665,
      4.6275,
      2.093541666666667,
      8.47486111111111,
      8.109375,
      -0.8214583333333333,
      0.10361111111111111,
      0.15430555555555556,
      0.06784722222222223,
      0.1773611111111111,
      0.15430555555555556,
      0.25277777777777777,
      0.15034722222222222,
      0.38006944444444446,
      0.15430555555555556,
      0.3398611111111111,
      0.0001388888888888889,
      0.08916666666666667,
      0.007569444444444445,
      0.04402777777777778,
      0.0038194444444444443,
      0.021319444444444443,
      0.007638888888888889,
      0.021388888888888888,
      5349.581666666667,
      0.006944444444444444,
      0.0125,
      0.007291666666666667,
      0.12541666666666668,
      0.0006944444444444445,
      10.70111111111111,
      0.44993055555555556,
      0.3794444444444444,
      0.75,
      30.493802083333332,
      0.0,
      0.029791666666666668,
      0.0,
      6.944444444444444e-05,
      0.0075,
      0.0,
      0.0,
      0.0,
      0.12152777777777778,
      0.19277777777777777,
      0.20354166666666668,
      0.035,
      0.11180555555555556,
      0.11444444444444445,
      42.85993055555556,
      0.5485416666666667,
      0.37243055555555554
    ],
    "std": [
      2.3666501521577565,
      5.0558046260379435,
      0.3239676735054115,
      0.4703941535799762,
      2.5313576451733915,
      0.9276987423712624,
      36.255245692981966,
      23.695373924939616,
      0.4506145013417171,
      0.304755391692144,
      0.3612414027769338,
      0.2514835514679849,
      0.4287432962078939,
      0.3612414027769338,
      0.43460461667992695,
      0.3574114365717527,
      0.48540360716020214,
      0.3612414027769338,
      0.6897422889415444,
      0.01178429458073041,
      0.28498416135326227,
      0.08667264825333834,
      0.20515684868346068,
      0.06168351715474927,
      0.1958696651680006,
      0.08706627513240761,
      0.26212436380230936,
      4980.903715538922,
      0.09253586225063848,
      0.11110243021644484,
      0.09213304653537127,
      0.7467288618069853,
      0.026343162136653695,
      13.966332489593556,
      0.49748673422818496,
      0.4852487589110263,
      1.0103629710818451,
      40.07328043057835,
      1.0,
      0.17001212681420372,
      1.0,
      0.008333043976457835,
      0.08627716963368699,
      1.0,
      1.0,
      1.0,
      1.09941039719052,
      0.7237464684661916,
      1.4625515037227463,
      0.5608995750874958,
      1.0163931686618468,
      0.4519552856720603,
      66.91516108721932,
      0.49763812815862707,
      0.483452207404347
    ]
  },
  "heads": {
    "pickup": {
      "type": "ridge_logit",
      "bias": 1.0918996317801397,
      "weights": [
        0.07482490714324157,
        0.11061677916577314,
        -0.022527945527665988,
        0.10407393054132154,
        -0.07088481474398915,
        0.053665571242726445,
        0.14736186220129538,
        -0.032028433987168675,
        4.210804949220675e-13,
        1.7368942804051949e-12,
        1.0708760406272546e-12,
        9.079955523470994e-13,
        -0.11482411691448245,
        1.0707579126072804e-12,
        4.723504291498156e-13,
        -3.660082761174935e-13,
        0.015792870601085002,
        1.0736797345975494e-12,
        3.6563362896104176e-13,
        -1.759313556203276e-14,
        1.9579978028783762e-13,
        9.462744735549872e-14,
        0.12605072715558696,
        1.955782005652575e-13,
        7.71470900341106e-14,
        -2.409465290798832e-13,
        3.5753663086386696e-14,
        0.015236707289529916,
        -1.1855284291263398e-13,
        1.4075982237634927e-13,
        -9.547072391957123e-14,
        8.204946128491768e-13,
        2.299335918545562e-14,
        -0.09083189709785373,
        0.052864357350734796,
        8.525972410801736e-13,
        -0.032540957583122934,
        0.2588734988197541,
        0.0,
        -5.252304642162958e-13,
        0.0,
        1.1826893519505197e-14,
        2.4354245164730913e-13,
        0.0,
        0.0,
        0.0,
        0.0027555838440072263,
        0.006330049994561414,
        -0.0403795186178611,
        0.007120169348075881,
        -0.02872054316616245,
        1.743163338478009e-13,
        -0.17053000637660187,
        -0.11236656848185121,
        -0.18988902797417653
      ],
      "clip": 8.0,
      "temperature": 0.5
    },
    "dropoff": {
      "type": "ridge_logit",
      "bias": 0.8850524185435025,
      "weights": [
        0.03925462605053906,
        -8.244517930346236e-13,
        -0.011003565859582742,
        0.001023412920173798,
        -0.08130101643036815,
        0.00693916705151402,
        0.05224964509430621,
        -1.6495245196546393e-05,
        0.03952957669390973,
        -0.02779869481874066,
        -0.07276132363613859,
        4.57892819942138e-13,
        0.0011228337772383162,
        -0.07276132363613953,
        0.020330204500247803,
        0.04983780222972486,
        5.919531999193031e-13,
        -0.0727613236361495,
        0.05165001704522403,
        8.792949012438614e-15,
        -1.8789335027940765e-13,
        1.2342728347696906e-13,
        -0.01348627888580251,
        1.2875200669942981e-13,
        -7.661192680553346e-14,
        6.709983103341981e-14,
        5.4324662911077615e-15,
        -0.052768726369966365,
        -0.005834001968222554,
        2.063328895537231e-13,
        0.010846052779479717,
        -0.09803316308980681,
        7.263933836908685e-15,
        -0.17225339100457732,
        -0.014743902551815768,
        -0.03224676978876799,
        0.06433303210929747,
        0.30690665140481865,
        0.0,
        -0.09203875812921039,
        0.0,
        8.471195093674412e-15,
        1.247849141060589e-13,
        0.0,
        0.0,
        0.0,
        1.8658129389116348e-13,
        5.349573413984046e-13,
        6.109683443323583e-14,
        4.335214293068357e-14,
        -0.016550802137106115,
        -2.5578265387807874e-13,
        -0.09710689828774292,
        0.05281830537151329,
        -0.054368151009828496
      ],
      "clip": 8.0,
      "temperature": 0.6
    },
    "ordering": {
      "type": "ridge",
      "bias": -2.0832361211994836,
      "weights": [
        -0.009170287480167839,
        -0.003622444737076524,
        -0.010128452429817029,
        0.003706738299717706,
        0.007633437002699122,
        -0.003975092415874811,
        -0.0009701316643584485,
        -0.044937770275966946,
        0.16765205438591174,
        0.00481115898867048,
        -0.010331092482053368,
        -0.006129236853659176,
        -0.008532576565887127,
        -0.010331092482049692,
        -0.04205735575290417,
        -0.07808089478788441,
        -0.03941593154318126,
        -0.010331092480796018,
        -0.07160056307755741,
        0.0002032558024902153,
        -0.4325889407353237,
        -0.001020396523530107,
        0.0010566858184198043,
        0.0001251806770244419,
        0.0012309401762211378,
        0.0022899585311412485,
        -0.0010063977557876079,
        -0.04451244008405607,
        0.1084127270924405,
        0.00020142699062987776,
        -1.8771238906150888e-05,
        -0.018542809026115187,
        0.0007706038106088737,
        -2.7981912535804487,
        0.13833213764116695,
        -0.05780028727875177,
        0.004999742944684449,
        0.07753835203288055,
        0.0,
        -0.017023523757672597,
        0.0,
        0.0002822311233888093,
        -0.001052333012192578,
        0.0,
        0.0,
        0.0,
        0.0022344721712974705,
        -0.0007731953279668273,
        -0.0017586575122386433,
        -0.0011676167241974707,
        -0.0025855661366419053,
        -0.002327429127180342,
        0.0024112830245305323,
        0.001189714122940761,
        -0.0031180844533268567
      ],
      "clip": 12.0
    }
  },
  "calibration": {
    "pickup_temp": 0.5,
    "dropoff_temp": 0.6
  },
  "weights": {
    "bias": -0.011453017346196151,
    "dist_to_nearest_active_item": 0.09175579908685223,
    "dist_to_dropoff": -0.04350938251139633,
    "inventory_util": 0.07434157965688278,
    "local_congestion": -1.1811010159346353,
    "teammate_proximity": 0.0848678640582087,
    "order_urgency": -0.15947714411453165,
    "blocked_ticks": 0.005355671024535552,
    "queue_distance": 0.027259839249633287,
    "queue_slot_index": 0.7872773682791169,
    "is_queue_violation": -1.1198739932095034,
    "near_dropoff_blocking": 0.06703276161589418,
    "repeated_failed_move_count": -0.5515206096531307,
    "conflict_degree": 0.4942682252564992,
    "yield_applied": 0.06703276161410944,
    "queue_role_lead": 2.2719451843521363,
    "queue_role_courier": 2.8730835054365325,
    "queue_role_collector": -0.015661969657967838,
    "queue_role_yield": 0.0670327616203034,
    "queue_advance": 0.416308622188563,
    "move_target_blocked": 0.2499255791907713,
    "noop_move": -1.5867595175801725,
    "intent_move_but_wait": -1.5675930741095874,
    "queue_relaxation_active": -1.2698945918699478,
    "in_corner": -1.0689923914908301,
    "dead_end_depth": -1.05173708311632,
    "escape_macro_active": 2.988431722393446,
    "escape_macro_ticks_remaining": -0.3417652328007733,
    "queue_eta_rank": 0.0002759660208334796,
    "local_conflict_count": 0.2966395762634763,
    "cbs_timeout": -1.6430345130027275,
    "cbs_expanded_nodes": -0.3531587903917425,
    "dropoff_attempt_same_order_streak": -2.8862229912762403,
    "dropoff_watchdog_triggered": 3.9917930942655917,
    "loop_two_cycle_count": -0.9839372503574251,
    "coverage_gain": 1.3643490051250524,
    "serviceable_dropoff": -5.5427760714899525,
    "ordering_rank": 0.21532551883077783,
    "ordering_score": 0.07976875168322421,
    "dropoff_target_pending": 0.0,
    "dropoff_target_in_progress": 1.6651118175522766,
    "wait_reason_blocked_by_vertex_reservation": 0.0,
    "wait_reason_blocked_by_edge_reservation": -1.175008777120538,
    "wait_reason_forbidden_queue_zone": -0.39258429698553027,
    "wait_reason_prohibited_repeat_move": 0.0,
    "wait_reason_no_path_with_constraints": 0.0,
    "wait_reason_timeout_fallback": 0.0,
    "stand_failure_count_recent": 0.07825483428235856,
    "stand_success_count_recent": 0.3596373443833518,
    "stand_cooldown_ticks_remaining": -0.0924249267452627,
    "kind_failure_count_recent": -0.11534549684427926,
    "repeated_same_stand_no_delta_streak": -0.08438153950266308,
    "contention_at_stand_proxy": -0.8719712357652563,
    "time_since_last_conversion_tick": -0.011098929670802801,
    "last_conversion_was_pickup": -0.30538453744164595,
    "last_conversion_was_dropoff": -0.9780715398488824
  },
  "ordering_weights": {
    "bias": -2.644542720272346,
    "carrying_active": -2.4935840769593662,
    "queue_role_lead": 2.7722230503105663,
    "queue_role_courier": 3.2618442279249127,
    "blocked_ticks": 0.006465584710118118,
    "local_conflict_count": -0.08096211657218212,
    "dist_to_goal_proxy": 0.018541320203447186,
    "dropoff_watchdog_pressure": -0.5223700787806499,
    "choke_occupancy_proxy": -0.5643106505242157
  },
  "metrics": {
    "rows_train": 14400,
    "rows_validation": 2700,
    "mae": 2.1289517073852657,
    "rmse": 4.156420755464417,
    "r2": 0.9678376530095734
  },
  "dedup": {
    "strategy": "downweight",
    "signature_kind": "action",
    "runs_total": 19,
    "runs_kept": 19,
    "signature_clusters": 11,
    "duplicated_clusters": 1,
    "duplicate_runs": 8,
    "max_cluster_size": 9,
    "top_cluster_sizes": [
      9,
      1,
      1,
      1,
      1
    ],
    "effective_run_weight_sum": 11.0,
    "signature_columns": [
      "tick",
      "bot_id",
      "action_kind",
      "action_dx",
      "action_dy",
      "action_item_kind",
      "action_order_id",
      "goal_cell_x",
      "goal_cell_y"
    ]
  },
  "metrics_v2": {
    "pickup": {
      "rows_train": 620,
      "rows_validation": 157,
      "logloss": 0.40564356755894254,
      "auc": 0.966044142614601
    },
    "dropoff": {
      "rows_train": 616,
      "rows_validation": 46,
      "logloss": 0.4835212239784878,
      "auc": 0.6096096096096096
    },
    "ordering": {
      "mae": 0.04204487640198495,
      "rmse": 0.1197489127898784,
      "r2": 0.9993329219809349
    }
  }
}